svm_type c_svc
kernel_type rbf
gamma 0.003125
nr_class 2
total_sv 312
rho 0.30113745533807934
label 0 1
nr_sv 156 156
SV
1.0 1:0.1291248206599713 2:0.1291248206599713 3:0.12769010043041606 4:0.12769010043041606 5:0.1291248206599713 6:0.11764705882352941 7:0.1291248206599713 8:0.12625538020086083 9:0.11172161172161173 10:0.05952380952380952 11:0.06501831501831502 12:0.11446886446886446 13:0.12728937728937728 14:0.11904761904761904 15:0.055860805860805864 16:0.1043956043956044 17:0.09591584158415842 18:0.003094059405940594 19:0.009282178217821782 20:0.09653465346534654 21:0.0724009900990099 22:0.009282178217821782 23:0.0 24:0.038366336633663366 25:0.058823529411764705 26:0.0 27:0.0 28:0.08235294117647059 29:0.05 30:0.0 31:0.0 32:0.028676470588235293 33:0.041666666666666664 34:0.0 35:0.0 36:0.056818181818181816 37:0.03851010101010101 38:0.0 39:0.0 40:0.03156565656565657 41:0.017108167770419427 42:0.0 43:0.0 44:0.0 45:0.0 46:0.0 47:0.0 48:0.02759381898454746 49:0.010869565217391304 50:0.0 51:0.0 52:0.0 53:0.0 54:0.0 55:0.0 56:0.008893280632411068 57:9.057971014492754E-4 58:0.0 59:0.0 60:0.0 61:0.0 62:0.0 63:0.0 64:9.057971014492754E-4 65:1.0 66:0.0 67:0.007326007326007326 68:0.0 69:0.0 70:0.0 71:0.0 72:0.0 73:0.0 74:0.0 75:0.0 76:0.0 77:0.0 78:0.0 79:0.0 80:0.0 81:0.9836065573770492 82:0.01639344262295082 83:0.09289617486338798 84:0.01092896174863388 85:0.01639344262295082 86:0.00546448087431694 87:0.01639344262295082 88:0.00546448087431694 89:0.09836065573770492 90:0.02185792349726776 91:0.1366120218579235 92:0.03825136612021858 93:0.01092896174863388 94:0.01092896174863388 95:0.03825136612021858 96:0.0 97:0.29411764705882354 98:0.11764705882352941 99:0.1411764705882353 100:0.023529411764705882 101:0.17647058823529413 102:0.29411764705882354 103:0.5411764705882353 104:0.10588235294117647 105:0.1411764705882353 106:0.4117647058823529 107:0.4588235294117647 108:0.12941176470588237 109:0.047058823529411764 110:0.11764705882352941 111:0.10588235294117647 112:0.12941176470588237 113:0.6601941747572816 114:0.06796116504854369 115:0.27184466019417475 116:0.009708737864077669 117:0.0970873786407767 118:0.1262135922330097 119:0.46601941747572817 120:0.038834951456310676 121:0.14563106796116504 122:0.11650485436893204 123:0.4563106796116505 124:0.02912621359223301 125:0.0 126:0.04854368932038835 127:0.07766990291262135 128:0.05825242718446602 129:0.9588235294117647 130:0.041176470588235294 131:0.14705882352941177 132:0.0 133:0.041176470588235294 134:0.01764705882352941 135:0.058823529411764705 136:0.011764705882352941 137:0.06470588235294118 138:0.01764705882352941 139:0.21764705882352942 140:0.01764705882352941 141:0.0 142:0.0 143:0.011764705882352941 144:0.011764705882352941 145:0.18543046357615894 146:0.006622516556291391 147:0.17880794701986755 148:0.019867549668874173 149:0.046357615894039736 150:0.006622516556291391 151:0.059602649006622516 152:0.039735099337748346 153:0.10596026490066225 154:0.039735099337748346 155:0.9536423841059603 156:0.07947019867549669 157:0.0 158:0.006622516556291391 159:0.052980132450331126 160:0.039735099337748346 161:0.2875 162:0.1875 163:0.25 164:0.0375 165:0.2125 166:0.2125 167:0.4125 168:0.125 169:0.1875 170:0.5875 171:0.275 172:0.0875 173:0.025 174:0.1625 175:0.175 176:0.2125 177:0.21505376344086022 178:0.12903225806451613 179:0.12903225806451613 180:0.021505376344086023 181:0.12903225806451613 182:0.25806451612903225 183:0.34408602150537637 184:0.17204301075268819 185:0.13978494623655913 186:0.7634408602150538 187:0.20430107526881722 188:0.1827956989247312 189:0.021505376344086023 190:0.07526881720430108 191:0.07526881720430108 192:0.0967741935483871 193:0.20833333333333334 194:0.10416666666666667 195:0.14583333333333334 196:0.010416666666666666 197:0.10416666666666667 198:0.10416666666666667 199:0.4166666666666667 200:0.041666666666666664 201:0.20833333333333334 202:0.4270833333333333 203:0.6875 204:0.16666666666666666 205:0.010416666666666666 206:0.052083333333333336 207:0.08333333333333333 208:0.09375 209:0.07086614173228346 210:0.1889763779527559 211:0.05511811023622047 212:0.007874015748031496 213:0.13385826771653545 214:0.8503937007874016 215:0.25196850393700787 216:0.08661417322834646 217:0.05511811023622047 218:0.047244094488188976 219:0.3779527559055118 220:0.0 221:0.0 222:0.007874015748031496 223:0.031496062992125984 224:0.0 225:0.21739130434782608 226:0.03260869565217391 227:0.25 228:0.021739130434782608 229:0.07608695652173914 230:0.32608695652173914 231:0.5869565217391305 232:0.043478260869565216 233:0.15217391304347827 234:0.43478260869565216 235:0.40217391304347827 236:0.10869565217391304 237:0.0 238:0.07608695652173914 239:0.18478260869565216 240:0.07608695652173914 241:0.17204301075268819 242:0.13978494623655913 243:0.45161290322580644 244:0.021505376344086023 245:0.1827956989247312 246:0.3010752688172043 247:0.1935483870967742 248:0.07526881720430108 249:0.12903225806451613 250:0.21505376344086022 251:0.7096774193548387 252:0.043010752688172046 253:0.053763440860215055 254:0.06451612903225806 255:0.13978494623655913 256:0.06451612903225806 257:0.16666666666666666 258:0.015151515151515152 259:0.03787878787878788 260:0.022727272727272728 261:0.045454545454545456 262:0.045454545454545456 263:0.3409090909090909 264:0.045454545454545456 265:0.25 266:0.8484848484848485 267:0.19696969696969696 268:0.1893939393939394 269:0.015151515151515152 270:0.0 271:0.007575757575757576 272:0.045454545454545456 273:0.17073170731707318 274:0.04878048780487805 275:0.2032520325203252 276:0.056910569105691054 277:0.1951219512195122 278:0.008130081300813009 279:0.8455284552845529 280:0.13821138211382114 281:0.10569105691056911 282:0.36585365853658536 283:0.07317073170731707 284:0.08943089430894309 285:0.024390243902439025 286:0.032520325203252036 287:0.032520325203252036 288:0.04878048780487805 289:0.15254237288135594 290:0.03389830508474576 291:0.1694915254237288 292:0.025423728813559324 293:0.1440677966101695 294:0.6779661016949152 295:0.2288135593220339 296:0.0847457627118644 297:0.1271186440677966 298:0.0423728813559322 299:0.6186440677966102 300:0.1271186440677966 301:0.01694915254237288 302:0.0 303:0.059322033898305086 304:0.03389830508474576 305:0.14615384615384616 306:0.17692307692307693 307:0.05384615384615385 308:0.038461538461538464 309:0.16153846153846155 310:0.8692307692307693 311:0.05384615384615385 312:0.13846153846153847 313:0.1076923076923077 314:0.05384615384615385 315:0.3384615384615385 316:0.1 317:0.007692307692307693 318:0.015384615384615385 319:0.015384615384615385 320:0.03076923076923077 
1.0 1:0.01721664275466284 2:0.06312769010043041 3:0.05738880918220947 4:0.024390243902439025 5:0.005738880918220947 6:0.015781922525107604 7:0.0028694404591104736 8:0.0 9:0.076007326007326 10:0.023809523809523808 11:0.03021978021978022 12:0.04212454212454213 13:0.0 14:0.021062271062271064 15:0.009157509157509158 16:0.004578754578754579 17:0.05631188118811881 18:0.0 19:0.0 20:0.04702970297029703 21:0.04888613861386139 22:0.011757425742574257 23:0.0 24:0.04207920792079208 25:0.01911764705882353 26:0.0 27:0.0 28:0.06691176470588235 29:0.04779411764705882 30:0.0 31:0.0 32:0.04338235294117647 33:0.011994949494949494 34:0.0 35:0.0 36:0.026515151515151516 37:0.04292929292929293 38:0.0 39:0.0 40:0.032196969696969696 41:0.009381898454746136 42:0.0 43:0.0 44:0.0016556291390728477 45:0.00772626931567329 46:0.0 47:0.0 48:0.017108167770419427 49:0.003952569169960474 50:0.0 51:0.0 52:0.0 53:0.0 54:0.0 55:0.0 56:0.011857707509881422 57:0.0 58:0.0 59:0.0 60:0.0 61:0.0 62:0.0 63:0.0 64:0.0 65:1.0 66:0.0 67:0.035555555555555556 68:0.0 69:0.0044444444444444444 70:0.0 71:0.0044444444444444444 72:0.0 73:0.017777777777777778 74:0.0 75:0.0044444444444444444 76:0.0 77:0.0 78:0.0 79:0.0 80:0.0 81:0.9145299145299145 82:0.05128205128205128 83:0.23931623931623933 84:0.05982905982905983 85:0.08547008547008547 86:0.008547008547008548 87:0.03418803418803419 88:0.02564102564102564 89:0.1452991452991453 90:0.02564102564102564 91:0.2564102564102564 92:0.08547008547008547 93:0.008547008547008548 94:0.008547008547008548 95:0.042735042735042736 96:0.05982905982905983 97:0.2972972972972973 98:0.16216216216216217 99:0.10810810810810811 100:0.0 101:0.16216216216216217 102:0.2702702702702703 103:0.3918918918918919 104:0.04054054054054054 105:0.24324324324324326 106:0.527027027027027 107:0.47297297297297297 108:0.1891891891891892 109:0.05405405405405406 110:0.10810810810810811 111:0.08108108108108109 112:0.13513513513513514 113:0.3655913978494624 114:0.07526881720430108 115:0.22580645161290322 116:0.021505376344086023 117:0.15053763440860216 118:0.12903225806451613 119:0.5591397849462365 120:0.03225806451612903 121:0.21505376344086022 122:0.26881720430107525 123:0.5591397849462365 124:0.021505376344086023 125:0.03225806451612903 126:0.021505376344086023 127:0.0967741935483871 128:0.12903225806451613 129:0.8148148148148148 130:0.018518518518518517 131:0.3055555555555556 132:0.06481481481481481 133:0.046296296296296294 134:0.0 135:0.3148148148148148 136:0.027777777777777776 137:0.12037037037037036 138:0.018518518518518517 139:0.3611111111111111 140:0.05555555555555555 141:0.018518518518518517 142:0.0 143:0.046296296296296294 144:0.009259259259259259 145:0.112 146:0.064 147:0.144 148:0.04 149:0.096 150:0.048 151:0.072 152:0.024 153:0.144 154:0.024 155:0.96 156:0.104 157:0.008 158:0.0 159:0.064 160:0.016 161:0.3013698630136986 162:0.3287671232876712 163:0.0821917808219178 164:0.0410958904109589 165:0.3972602739726027 166:0.5205479452054794 167:0.3424657534246575 168:0.2876712328767123 169:0.0958904109589041 170:0.3013698630136986 171:0.1232876712328767 172:0.0547945205479452 173:0.0273972602739726 174:0.1917808219178082 175:0.0821917808219178 176:0.1095890410958904 177:0.19318181818181818 178:0.26136363636363635 179:0.1590909090909091 180:0.011363636363636364 181:0.11363636363636363 182:0.3522727272727273 183:0.13636363636363635 184:0.11363636363636363 185:0.2159090909090909 186:0.7272727272727273 187:0.25 188:0.23863636363636365 189:0.03409090909090909 190:0.06818181818181818 191:0.056818181818181816 192:0.13636363636363635 193:0.09302325581395349 194:0.10465116279069768 195:0.09302325581395349 196:0.011627906976744186 197:0.22093023255813954 198:0.1744186046511628 199:0.5116279069767442 200:0.09302325581395349 201:0.13953488372093023 202:0.6162790697674418 203:0.4418604651162791 204:0.22093023255813954 205:0.011627906976744186 206:0.03488372093023256 207:0.023255813953488372 208:0.0 209:0.08 210:0.14 211:0.24 212:0.0 213:0.16 214:0.46 215:0.8 216:0.08 217:0.04 218:0.11 219:0.09 220:0.01 221:0.0 222:0.05 223:0.11 224:0.03 225:0.25609756097560976 226:0.12195121951219512 227:0.17073170731707318 228:0.012195121951219513 229:0.12195121951219512 230:0.3902439024390244 231:0.6951219512195121 232:0.07317073170731707 233:0.07317073170731707 234:0.25609756097560976 235:0.3780487804878049 236:0.10975609756097561 237:0.0 238:0.04878048780487805 239:0.0975609756097561 240:0.12195121951219512 241:0.10784313725490197 242:0.058823529411764705 243:0.5 244:0.0196078431372549 245:0.049019607843137254 246:0.06862745098039216 247:0.5490196078431373 248:0.049019607843137254 249:0.13725490196078433 250:0.11764705882352941 251:0.5784313725490197 252:0.06862745098039216 253:0.0392156862745098 254:0.0196078431372549 255:0.21568627450980393 256:0.06862745098039216 257:0.22123893805309736 258:0.07964601769911504 259:0.008849557522123894 260:0.05309734513274336 261:0.035398230088495575 262:0.017699115044247787 263:0.3008849557522124 264:0.035398230088495575 265:0.35398230088495575 266:0.8230088495575221 267:0.20353982300884957 268:0.1415929203539823 269:0.008849557522123894 270:0.017699115044247787 271:0.0 272:0.035398230088495575 273:0.17307692307692307 274:0.028846153846153848 275:0.15384615384615385 276:0.038461538461538464 277:0.22115384615384615 278:0.019230769230769232 279:0.7403846153846154 280:0.08653846153846154 281:0.14423076923076922 282:0.5288461538461539 283:0.09615384615384616 284:0.19230769230769232 285:0.019230769230769232 286:0.009615384615384616 287:0.0673076923076923 288:0.019230769230769232 289:0.14285714285714285 290:0.04395604395604396 291:0.3626373626373626 292:0.03296703296703297 293:0.1978021978021978 294:0.2967032967032967 295:0.5824175824175825 296:0.07692307692307693 297:0.16483516483516483 298:0.06593406593406594 299:0.5714285714285714 300:0.12087912087912088 301:0.054945054945054944 302:0.02197802197802198 303:0.10989010989010989 304:0.054945054945054944 305:0.21296296296296297 306:0.07407407407407407 307:0.2037037037037037 308:0.046296296296296294 309:0.26851851851851855 310:0.75 311:0.10185185185185185 312:0.16666666666666666 313:0.1574074074074074 314:0.027777777777777776 315:0.4166666666666667 316:0.16666666666666666 317:0.05555555555555555 318:0.018518518518518517 319:0.046296296296296294 320:0.037037037037037035 
1.0 1:0.00860832137733142 2:0.0 3:0.0014347202295552368 4:0.0 5:0.00860832137733142 6:0.05164992826398852 7:0.0746054519368723 8:0.06886657101865136 9:0.021062271062271064 10:0.008241758241758242 11:0.007326007326007326 12:0.0 13:0.015567765567765568 14:0.047619047619047616 15:9.157509157509158E-4 16:0.07234432234432235 17:0.029084158415841586 18:0.0037128712871287127 19:0.038366336633663366 20:0.006188118811881188 21:0.03712871287128713 22:0.0049504950495049506 23:0.0 24:0.03403465346534654 25:0.03897058823529412 26:0.020588235294117647 27:0.033823529411764704 28:0.007352941176470588 29:0.03676470588235294 30:0.0 31:0.0 32:0.0125 33:0.020202020202020204 34:0.010732323232323232 35:0.0 36:0.0 37:0.032196969696969696 38:0.0 39:0.0 40:0.0025252525252525255 41:0.0 42:0.0 43:0.0 44:0.0 45:0.016004415011037526 46:0.0 47:0.0 48:0.0 49:0.0 50:0.0 51:0.0 52:0.0 53:0.001976284584980237 54:0.0 55:0.0 56:0.0 57:0.0 58:0.0 59:0.0 60:0.0 61:9.057971014492754E-4 62:0.0 63:0.0 64:0.0 65:0.9961977186311787 66:0.030418250950570342 67:0.06844106463878327 68:0.0038022813688212928 69:0.034220532319391636 70:0.0038022813688212928 71:0.0076045627376425855 72:0.0038022813688212928 73:0.045627376425855515 74:0.015209125475285171 75:0.022813688212927757 76:0.0038022813688212928 77:0.0 78:0.0 79:0.0 80:0.0 81:0.6967213114754098 82:0.05737704918032787 83:0.3114754098360656 84:0.06557377049180328 85:0.09836065573770492 86:0.11475409836065574 87:0.13934426229508196 88:0.04918032786885246 89:0.18032786885245902 90:0.05737704918032787 91:0.5655737704918032 92:0.07377049180327869 93:0.040983606557377046 94:0.05737704918032787 95:0.09836065573770492 96:0.05737704918032787 97:0.3 98:0.08 99:0.17 100:0.03 101:0.22 102:0.28 103:0.58 104:0.12 105:0.16 106:0.26 107:0.47 108:0.15 109:0.0 110:0.12 111:0.16 112:0.15 113:0.2631578947368421 114:0.06140350877192982 115:0.22807017543859648 116:0.02631578947368421 117:0.18421052631578946 118:0.23684210526315788 119:0.5175438596491229 120:0.12280701754385964 121:0.11403508771929824 122:0.09649122807017543 123:0.6754385964912281 124:0.07894736842105263 125:0.043859649122807015 126:0.03508771929824561 127:0.08771929824561403 128:0.07894736842105263 129:0.8079470198675497 130:0.08609271523178808 131:0.2582781456953642 132:0.046357615894039736 133:0.06622516556291391 134:0.033112582781456956 135:0.0728476821192053 136:0.033112582781456956 137:0.13245033112582782 138:0.026490066225165563 139:0.4900662251655629 140:0.046357615894039736 141:0.006622516556291391 142:0.006622516556291391 143:0.026490066225165563 144:0.013245033112582781 145:0.42424242424242425 146:0.16161616161616163 147:0.25252525252525254 148:0.0707070707070707 149:0.10101010101010101 150:0.1717171717171717 151:0.2222222222222222 152:0.09090909090909091 153:0.26262626262626265 154:0.5454545454545454 155:0.4444444444444444 156:0.15151515151515152 157:0.010101010101010102 158:0.13131313131313133 159:0.12121212121212122 160:0.12121212121212122 161:0.32323232323232326 162:0.13131313131313133 163:0.21212121212121213 164:0.030303030303030304 165:0.1717171717171717 166:0.45454545454545453 167:0.20202020202020202 168:0.12121212121212122 169:0.24242424242424243 170:0.18181818181818182 171:0.5959595959595959 172:0.1717171717171717 173:0.04040404040404041 174:0.0707070707070707 175:0.12121212121212122 176:0.21212121212121213 177:0.20388349514563106 178:0.1553398058252427 179:0.21359223300970873 180:0.038834951456310676 181:0.1941747572815534 182:0.3592233009708738 183:0.5145631067961165 184:0.0970873786407767 185:0.1650485436893204 186:0.21359223300970873 187:0.5728155339805825 188:0.13592233009708737 189:0.02912621359223301 190:0.02912621359223301 191:0.14563106796116504 192:0.08737864077669903 193:0.30973451327433627 194:0.12389380530973451 195:0.4336283185840708 196:0.07079646017699115 197:0.1504424778761062 198:0.07079646017699115 199:0.7345132743362832 200:0.08849557522123894 201:0.12389380530973451 202:0.13274336283185842 203:0.25663716814159293 204:0.07079646017699115 205:0.02654867256637168 206:0.061946902654867256 207:0.13274336283185842 208:0.08849557522123894 209:0.17829457364341086 210:0.14728682170542637 211:0.6201550387596899 212:0.03875968992248062 213:0.06201550387596899 214:0.023255813953488372 215:0.2558139534883721 216:0.015503875968992248 217:0.09302325581395349 218:0.1937984496124031 219:0.6589147286821705 220:0.031007751937984496 221:0.031007751937984496 222:0.03875968992248062 223:0.11627906976744186 224:0.015503875968992248 225:0.12337662337662338 226:0.032467532467532464 227:0.24025974025974026 228:0.006493506493506494 229:0.01948051948051948 230:0.14285714285714285 231:0.12337662337662338 232:0.025974025974025976 233:0.12987012987012986 234:0.12987012987012986 235:0.922077922077922 236:0.09090909090909091 237:0.006493506493506494 238:0.006493506493506494 239:0.05194805194805195 240:0.05844155844155844 241:0.23478260869565218 242:0.034782608695652174 243:0.3391304347826087 244:0.043478260869565216 245:0.14782608695652175 246:0.25217391304347825 247:0.4 248:0.10434782608695652 249:0.10434782608695652 250:0.017391304347826087 251:0.7130434782608696 252:0.09565217391304348 253:0.043478260869565216 254:0.017391304347826087 255:0.1826086956521739 256:0.09565217391304348 257:0.16176470588235295 258:0.022058823529411766 259:0.20588235294117646 260:0.014705882352941176 261:0.09558823529411764 262:0.007352941176470588 263:0.5220588235294118 264:0.07352941176470588 265:0.22058823529411764 266:0.7205882352941176 267:0.25 268:0.11029411764705882 269:0.014705882352941176 270:0.007352941176470588 271:0.0661764705882353 272:0.08088235294117647 273:0.24107142857142858 274:0.09821428571428571 275:0.44642857142857145 276:0.08035714285714286 277:0.15178571428571427 278:0.044642857142857144 279:0.5892857142857143 280:0.14285714285714285 281:0.17857142857142858 282:0.14285714285714285 283:0.49107142857142855 284:0.09821428571428571 285:0.09821428571428571 286:0.07142857142857142 287:0.11607142857142858 288:0.13392857142857142 289:0.19402985074626866 290:0.09701492537313433 291:0.08955223880597014 292:0.06716417910447761 293:0.12686567164179105 294:0.5597014925373134 295:0.04477611940298507 296:0.1417910447761194 297:0.20149253731343283 298:0.05223880597014925 299:0.7313432835820896 300:0.1044776119402985 301:0.03731343283582089 302:0.03731343283582089 303:0.03731343283582089 304:0.08955223880597014 305:0.4462809917355372 306:0.48760330578512395 307:0.11570247933884298 308:0.05785123966942149 309:0.18181818181818182 310:0.6446280991735537 311:0.1487603305785124 312:0.12396694214876033 313:0.11570247933884298 314:0.0743801652892562 315:0.19008264462809918 316:0.09917355371900827 317:0.04132231404958678 318:0.03305785123966942 319:0.05785123966942149 320:0.0743801652892562 
1.0 1:0.1291248206599713 2:0.12769010043041606 3:0.1291248206599713 4:0.12625538020086083 5:0.1291248206599713 6:0.12338593974175036 7:0.12482065997130559 8:0.12769010043041606 9:0.12637362637362637 10:0.11538461538461539 11:0.10897435897435898 12:0.12637362637362637 13:0.12637362637362637 14:0.11996336996336997 15:0.08058608058608059 16:0.12545787545787546 17:0.12623762376237624 18:0.03155940594059406 19:0.040222772277227724 20:0.12314356435643564 21:0.12685643564356436 22:0.055693069306930694 23:0.0 24:0.10148514851485149 25:0.09632352941176471 26:0.0 27:0.0014705882352941176 28:0.11911764705882352 29:0.06764705882352941 30:0.008088235294117648 31:0.0 32:0.0661764705882353 33:0.06881313131313131 34:0.0 35:0.0 36:0.10101010101010101 37:0.059343434343434344 38:0.0 39:0.0 40:0.059343434343434344 41:0.033112582781456956 42:0.0 43:0.0 44:0.025938189845474614 45:0.03200883002207505 46:0.0 47:0.0 48:0.05132450331125828 49:0.003458498023715415 50:0.0 51:0.0 52:0.0 53:0.0 54:0.0 55:0.0 56:0.011857707509881422 57:0.0 58:0.0 59:0.0 60:0.0 61:0.0 62:0.0 63:0.0 64:0.0 65:1.0 66:0.0 67:0.003115264797507788 68:0.0 69:0.028037383177570093 70:0.012461059190031152 71:0.003115264797507788 72:0.0 73:0.0 74:0.0 75:0.0 76:0.0 77:0.0 78:0.0 79:0.0 80:0.0 81:0.9921875 82:0.0 83:0.07421875 84:0.01171875 85:0.0078125 86:0.00390625 87:0.01171875 88:0.0078125 89:0.05078125 90:0.0078125 91:0.0859375 92:0.01953125 93:0.01171875 94:0.0078125 95:0.015625 96:0.00390625 97:0.41904761904761906 98:0.06666666666666667 99:0.20952380952380953 100:0.09523809523809523 101:0.18095238095238095 102:0.0380952380952381 103:0.5619047619047619 104:0.14285714285714285 105:0.1619047619047619 106:0.2857142857142857 107:0.4666666666666667 108:0.12380952380952381 109:0.047619047619047616 110:0.11428571428571428 111:0.08571428571428572 112:0.2 113:0.48872180451127817 114:0.07518796992481203 115:0.2631578947368421 116:0.015037593984962405 117:0.15789473684210525 118:0.06015037593984962 119:0.6090225563909775 120:0.05263157894736842 121:0.12781954887218044 122:0.15789473684210525 123:0.45112781954887216 124:0.03759398496240601 125:0.05263157894736842 126:0.045112781954887216 127:0.16541353383458646 128:0.08270676691729323 129:0.9619047619047619 130:0.023809523809523808 131:0.12380952380952381 132:0.03333333333333333 133:0.023809523809523808 134:0.009523809523809525 135:0.01904761904761905 136:0.009523809523809525 137:0.08571428571428572 138:0.004761904761904762 139:0.21904761904761905 140:0.02857142857142857 141:0.023809523809523808 142:0.004761904761904762 143:0.014285714285714285 144:0.014285714285714285 145:0.4423076923076923 146:0.11538461538461539 147:0.28846153846153844 148:0.057692307692307696 149:0.19230769230769232 150:0.16346153846153846 151:0.23076923076923078 152:0.14423076923076922 153:0.17307692307692307 154:0.15384615384615385 155:0.6634615384615384 156:0.09615384615384616 157:0.057692307692307696 158:0.09615384615384616 159:0.18269230769230768 160:0.17307692307692307 161:0.3617021276595745 162:0.1702127659574468 163:0.18085106382978725 164:0.05319148936170213 165:0.1595744680851064 166:0.2978723404255319 167:0.20212765957446807 168:0.14893617021276595 169:0.3191489361702128 170:0.2765957446808511 171:0.5319148936170213 172:0.2553191489361702 173:0.0425531914893617 174:0.23404255319148937 175:0.1276595744680851 176:0.2127659574468085 177:0.44144144144144143 178:0.18018018018018017 179:0.23423423423423423 180:0.036036036036036036 181:0.2882882882882883 182:0.2072072072072072 183:0.5225225225225225 184:0.12612612612612611 185:0.14414414414414414 186:0.3153153153153153 187:0.3333333333333333 188:0.06306306306306306 189:0.07207207207207207 190:0.0990990990990991 191:0.18018018018018017 192:0.16216216216216217 193:0.33962264150943394 194:0.14150943396226415 195:0.20754716981132076 196:0.018867924528301886 197:0.10377358490566038 198:0.10377358490566038 199:0.39622641509433965 200:0.10377358490566038 201:0.29245283018867924 202:0.41509433962264153 203:0.5660377358490566 204:0.18867924528301888 205:0.02830188679245283 206:0.05660377358490566 207:0.12264150943396226 208:0.08490566037735849 209:0.3595505617977528 210:0.21348314606741572 211:0.3258426966292135 212:0.07865168539325842 213:0.23595505617977527 214:0.15730337078651685 215:0.4044943820224719 216:0.25842696629213485 217:0.30337078651685395 218:0.2696629213483146 219:0.3258426966292135 220:0.19101123595505617 221:0.11235955056179775 222:0.1348314606741573 223:0.16853932584269662 224:0.23595505617977527 225:0.37755102040816324 226:0.19387755102040816 227:0.2755102040816326 228:0.01020408163265306 229:0.11224489795918367 230:0.2653061224489796 231:0.37755102040816324 232:0.1836734693877551 233:0.20408163265306123 234:0.4897959183673469 235:0.3469387755102041 236:0.14285714285714285 237:0.01020408163265306 238:0.11224489795918367 239:0.12244897959183673 240:0.20408163265306123 241:0.2833333333333333 242:0.18333333333333332 243:0.175 244:0.041666666666666664 245:0.2 246:0.675 247:0.10833333333333334 248:0.14166666666666666 249:0.19166666666666668 250:0.14166666666666666 251:0.45 252:0.14166666666666666 253:0.03333333333333333 254:0.125 255:0.08333333333333333 256:0.175 257:0.13636363636363635 258:0.18181818181818182 259:0.04040404040404041 260:0.020202020202020204 261:0.04040404040404041 262:0.025252525252525252 263:0.15151515151515152 264:0.020202020202020204 265:0.13131313131313133 266:0.9343434343434344 267:0.12626262626262627 268:0.09090909090909091 269:0.020202020202020204 270:0.0707070707070707 271:0.025252525252525252 272:0.045454545454545456 273:0.3739130434782609 274:0.3565217391304348 275:0.14782608695652175 276:0.06956521739130435 277:0.28695652173913044 278:0.41739130434782606 279:0.391304347826087 280:0.24347826086956523 281:0.1391304347826087 282:0.3565217391304348 283:0.17391304347826086 284:0.08695652173913043 285:0.11304347826086956 286:0.14782608695652175 287:0.09565217391304348 288:0.14782608695652175 289:0.2875816993464052 290:0.0457516339869281 291:0.1111111111111111 292:0.0457516339869281 293:0.16993464052287582 294:0.7124183006535948 295:0.1437908496732026 296:0.10457516339869281 297:0.13725490196078433 298:0.0457516339869281 299:0.5424836601307189 300:0.12418300653594772 301:0.032679738562091505 302:0.026143790849673203 303:0.058823529411764705 304:0.0784313725490196 305:0.47368421052631576 306:0.19473684210526315 307:0.1368421052631579 308:0.015789473684210527 309:0.10526315789473684 310:0.7368421052631579 311:0.02631578947368421 312:0.06315789473684211 313:0.10526315789473684 314:0.07368421052631578 315:0.37894736842105264 316:0.06315789473684211 317:0.005263157894736842 318:0.010526315789473684 319:0.0 320:0.02631578947368421 
1.0 1:0.0014347202295552368 2:0.04160688665710186 3:0.06456241032998565 4:0.014347202295552367 5:0.0 6:0.0 7:0.0 8:0.0 9:0.029304029304029304 10:0.03571428571428571 11:0.01098901098901099 12:0.04945054945054945 13:0.0 14:0.0027472527472527475 15:0.0 16:0.0 17:0.03589108910891089 18:0.0 19:0.0 20:0.03650990099009901 21:0.022896039603960396 22:6.188118811881188E-4 23:0.0 24:0.0 25:0.027205882352941177 26:0.0 27:0.0 28:0.03455882352941177 29:0.039705882352941174 30:0.026470588235294117 31:7.352941176470588E-4 32:0.0 33:0.02335858585858586 34:0.0 35:0.0 36:0.026515151515151516 37:0.022727272727272728 38:0.017045454545454544 39:0.0 40:0.0 41:0.025386313465783666 42:0.0 43:0.0 44:0.0 45:0.0011037527593818985 46:0.0016556291390728477 47:0.0 48:0.0027593818984547464 49:0.015316205533596838 50:0.0 51:0.0 52:0.0 53:0.005434782608695652 54:0.0 55:0.0 56:0.017292490118577076 57:9.057971014492754E-4 58:0.0 59:0.0 60:0.0 61:0.0036231884057971015 62:0.0 63:0.0 64:9.057971014492754E-4 65:1.0 66:0.0 67:0.015915119363395226 68:0.0 69:0.0 70:0.0 71:0.0 72:0.0 73:0.002652519893899204 74:0.0 75:0.0 76:0.0 77:0.0 78:0.0 79:0.0 80:0.0 81:0.9968152866242038 82:0.0 83:0.041401273885350316 84:0.0031847133757961785 85:0.009554140127388535 86:0.0 87:0.0031847133757961785 88:0.0 89:0.08280254777070063 90:0.006369426751592357 91:0.04777070063694268 92:0.022292993630573247 93:0.0 94:0.0 95:0.006369426751592357 96:0.0031847133757961785 97:0.31666666666666665 98:0.16666666666666666 99:0.21666666666666667 100:0.03333333333333333 101:0.16666666666666666 102:0.21666666666666667 103:0.5833333333333334 104:0.15 105:0.175 106:0.225 107:0.5083333333333333 108:0.18333333333333332 109:0.025 110:0.05 111:0.11666666666666667 112:0.06666666666666667 113:0.20422535211267606 114:0.09154929577464789 115:0.21830985915492956 116:0.02112676056338028 117:0.14788732394366197 118:0.5140845070422535 119:0.47183098591549294 120:0.1267605633802817 121:0.1056338028169014 122:0.19718309859154928 123:0.5422535211267606 124:0.07042253521126761 125:0.028169014084507043 126:0.04225352112676056 127:0.13380281690140844 128:0.1267605633802817 129:0.9968847352024922 130:0.018691588785046728 131:0.037383177570093455 132:0.003115264797507788 133:0.037383177570093455 134:0.003115264797507788 135:0.009345794392523364 136:0.0 137:0.06542056074766354 138:0.006230529595015576 139:0.003115264797507788 140:0.006230529595015576 141:0.0 142:0.0 143:0.003115264797507788 144:0.006230529595015576 145:0.710691823899371 146:0.1069182389937107 147:0.16981132075471697 148:0.031446540880503145 149:0.05660377358490566 150:0.06289308176100629 151:0.09433962264150944 152:0.05660377358490566 153:0.1509433962264151 154:0.06289308176100629 155:0.6226415094339622 156:0.0880503144654088 157:0.006289308176100629 158:0.031446540880503145 159:0.06289308176100629 160:0.10062893081761007 161:0.5486725663716814 162:0.19469026548672566 163:0.1592920353982301 164:0.10619469026548672 165:0.2920353982300885 166:0.11504424778761062 167:0.3893805309734513 168:0.23008849557522124 169:0.25663716814159293 170:0.40707964601769914 171:0.1415929203539823 172:0.21238938053097345 173:0.05309734513274336 174:0.04424778761061947 175:0.09734513274336283 176:0.1504424778761062 177:0.28225806451612906 178:0.14516129032258066 179:0.21774193548387097 180:0.056451612903225805 181:0.3709677419354839 182:0.3387096774193548 183:0.5403225806451613 184:0.21774193548387097 185:0.20967741935483872 186:0.2661290322580645 187:0.27419354838709675 188:0.08870967741935484 189:0.04032258064516129 190:0.12096774193548387 191:0.14516129032258066 192:0.1693548387096774 193:0.5416666666666666 194:0.03571428571428571 195:0.20833333333333334 196:0.02976190476190476 197:0.05952380952380952 198:0.023809523809523808 199:0.13690476190476192 200:0.011904761904761904 201:0.20238095238095238 202:0.08928571428571429 203:0.7678571428571429 204:0.05357142857142857 205:0.023809523809523808 206:0.005952380952380952 207:0.05357142857142857 208:0.041666666666666664 209:0.4957983193277311 210:0.21008403361344538 211:0.33613445378151263 212:0.03361344537815126 213:0.16806722689075632 214:0.12605042016806722 215:0.42016806722689076 216:0.07563025210084033 217:0.25210084033613445 218:0.2605042016806723 219:0.453781512605042 220:0.1092436974789916 221:0.04201680672268908 222:0.05042016806722689 223:0.12605042016806722 224:0.06722689075630252 225:0.5042016806722689 226:0.15966386554621848 227:0.29411764705882354 228:0.008403361344537815 229:0.2184873949579832 230:0.2184873949579832 231:0.4117647058823529 232:0.08403361344537816 233:0.2689075630252101 234:0.20168067226890757 235:0.46218487394957986 236:0.14285714285714285 237:0.025210084033613446 238:0.07563025210084033 239:0.07563025210084033 240:0.07563025210084033 241:0.38016528925619836 242:0.2231404958677686 243:0.3305785123966942 244:0.11570247933884298 245:0.2231404958677686 246:0.35537190082644626 247:0.2727272727272727 248:0.15702479338842976 249:0.2066115702479339 250:0.1652892561983471 251:0.5041322314049587 252:0.1487603305785124 253:0.04132231404958678 254:0.12396694214876033 255:0.1652892561983471 256:0.15702479338842976 257:0.31210191082802546 258:0.11464968152866242 259:0.3184713375796178 260:0.025477707006369428 261:0.1910828025477707 262:0.025477707006369428 263:0.6751592356687898 264:0.11464968152866242 265:0.16560509554140126 266:0.445859872611465 267:0.16560509554140126 268:0.09554140127388536 269:0.01910828025477707 270:0.01910828025477707 271:0.1337579617834395 272:0.08280254777070063 273:0.4142857142857143 274:0.17857142857142858 275:0.4642857142857143 276:0.1 277:0.22857142857142856 278:0.15 279:0.2785714285714286 280:0.09285714285714286 281:0.22857142857142856 282:0.07857142857142857 283:0.5428571428571428 284:0.16428571428571428 285:0.06428571428571428 286:0.06428571428571428 287:0.14285714285714285 288:0.06428571428571428 289:0.3067484662576687 290:0.12269938650306748 291:0.15337423312883436 292:0.04294478527607362 293:0.18404907975460122 294:0.6012269938650306 295:0.12883435582822086 296:0.09815950920245399 297:0.147239263803681 298:0.1165644171779141 299:0.6257668711656442 300:0.10429447852760736 301:0.018404907975460124 302:0.03067484662576687 303:0.03680981595092025 304:0.07975460122699386 305:0.7121951219512195 306:0.2 307:0.0975609756097561 308:0.05365853658536585 309:0.12195121951219512 310:0.5609756097560976 311:0.08292682926829269 312:0.04878048780487805 313:0.1024390243902439 314:0.05365853658536585 315:0.28292682926829266 316:0.05365853658536585 317:0.004878048780487805 318:0.04390243902439024 319:0.01951219512195122 320:0.06341463414634146 
1.0 1:0.12769010043041606 2:0.12769010043041606 3:0.12769010043041606 4:0.12625538020086083 5:0.12769010043041606 6:0.11621233859397417 7:0.11621233859397417 8:0.1291248206599713 9:0.1282051282051282 10:0.1282051282051282 11:0.1282051282051282 12:0.12912087912087913 13:0.12637362637362637 14:0.11446886446886446 15:0.10805860805860806 16:0.11172161172161173 17:0.12747524752475248 18:0.09034653465346534 19:0.055693069306930694 20:0.12747524752475248 21:0.12561881188118812 22:0.05816831683168317 23:0.011757425742574257 24:0.09777227722772278 25:0.12205882352941176 26:0.010294117647058823 27:0.004411764705882353 28:0.12058823529411765 29:0.10955882352941176 30:0.005147058823529412 31:0.0 32:0.09117647058823529 33:0.07133838383838384 34:0.0 35:0.0 36:0.06944444444444445 37:0.08080808080808081 38:0.0 39:0.0 40:0.08333333333333333 41:0.03200883002207505 42:0.0 43:0.0 44:0.003863134657836645 45:0.06291390728476821 46:0.0 47:0.0 48:0.0695364238410596 49:0.004940711462450593 50:0.0 51:0.0 52:0.0 53:0.018774703557312252 54:0.0 55:0.0 56:0.019762845849802372 57:0.0 58:0.0 59:0.0 60:0.0 61:0.014492753623188406 62:0.0 63:0.0 64:0.0 65:1.0 66:0.0 67:0.0 68:0.0 69:0.0 70:0.0 71:0.0 72:0.0 73:0.0 74:0.0 75:0.0 76:0.0 77:0.0 78:0.0 79:0.0 80:0.0 81:0.9975308641975309 82:0.0 83:0.02962962962962963 84:0.0024691358024691358 85:0.0 86:0.0024691358024691358 87:0.0049382716049382715 88:0.0 89:0.0345679012345679 90:0.0 91:0.07901234567901234 92:0.009876543209876543 93:0.0 94:0.0 95:0.0024691358024691358 96:0.009876543209876543 97:0.7062146892655368 98:0.05649717514124294 99:0.288135593220339 100:0.02824858757062147 101:0.03954802259887006 102:0.12994350282485875 103:0.192090395480226 104:0.04519774011299435 105:0.11299435028248588 106:0.14689265536723164 107:0.5254237288135594 108:0.05084745762711865 109:0.03954802259887006 110:0.03954802259887006 111:0.1751412429378531 112:0.10734463276836158 113:0.3953488372093023 114:0.05232558139534884 115:0.22093023255813954 116:0.011627906976744186 117:0.26744186046511625 118:0.3081395348837209 119:0.5523255813953488 120:0.10465116279069768 121:0.040697674418604654 122:0.01744186046511628 123:0.5465116279069767 124:0.029069767441860465 125:0.023255813953488372 126:0.03488372093023256 127:0.0755813953488372 128:0.08139534883720931 129:0.9973684210526316 130:0.007894736842105263 131:0.031578947368421054 132:0.005263157894736842 133:0.002631578947368421 134:0.005263157894736842 135:0.007894736842105263 136:0.0 137:0.04473684210526316 138:0.007894736842105263 139:0.05 140:0.010526315789473684 141:0.005263157894736842 142:0.002631578947368421 143:0.005263157894736842 144:0.015789473684210527 145:0.6190476190476191 146:0.06802721088435375 147:0.2653061224489796 148:0.05442176870748299 149:0.12244897959183673 150:0.20408163265306123 151:0.22448979591836735 152:0.1360544217687075 153:0.1564625850340136 154:0.17006802721088435 155:0.5034013605442177 156:0.1292517006802721 157:0.061224489795918366 158:0.10884353741496598 159:0.19727891156462585 160:0.2108843537414966 161:0.3805970149253731 162:0.14925373134328357 163:0.2537313432835821 164:0.029850746268656716 165:0.20149253731343283 166:0.11940298507462686 167:0.4552238805970149 168:0.17164179104477612 169:0.2462686567164179 170:0.3656716417910448 171:0.19402985074626866 172:0.27611940298507465 173:0.007462686567164179 174:0.16417910447761194 175:0.208955223880597 176:0.3208955223880597 177:0.5294117647058824 178:0.13725490196078433 179:0.20261437908496732 180:0.0392156862745098 181:0.27450980392156865 182:0.5816993464052288 183:0.29411764705882354 184:0.10457516339869281 185:0.0718954248366013 186:0.10457516339869281 187:0.2679738562091503 188:0.05228758169934641 189:0.032679738562091505 190:0.0718954248366013 191:0.1437908496732026 192:0.19607843137254902 193:0.34177215189873417 194:0.10126582278481013 195:0.21518987341772153 196:0.012658227848101266 197:0.13291139240506328 198:0.2468354430379747 199:0.2848101265822785 200:0.0949367088607595 201:0.0949367088607595 202:0.24050632911392406 203:0.7531645569620253 204:0.10759493670886076 205:0.02531645569620253 206:0.02531645569620253 207:0.0949367088607595 208:0.11392405063291139 209:0.38571428571428573 210:0.15 211:0.24285714285714285 212:0.03571428571428571 213:0.06428571428571428 214:0.16428571428571428 215:0.37142857142857144 216:0.1 217:0.2642857142857143 218:0.42142857142857143 219:0.4642857142857143 220:0.20714285714285716 221:0.03571428571428571 222:0.11428571428571428 223:0.21428571428571427 224:0.15714285714285714 225:0.5138888888888888 226:0.22916666666666666 227:0.13194444444444445 228:0.04861111111111111 229:0.19444444444444445 230:0.3680555555555556 231:0.3611111111111111 232:0.1111111111111111 233:0.13194444444444445 234:0.4652777777777778 235:0.25 236:0.06944444444444445 237:0.013888888888888888 238:0.13194444444444445 239:0.125 240:0.1527777777777778 241:0.36792452830188677 242:0.0660377358490566 243:0.07075471698113207 244:0.009433962264150943 245:0.2028301886792453 246:0.8632075471698113 247:0.08490566037735849 248:0.08490566037735849 249:0.02358490566037736 250:0.03773584905660377 251:0.2169811320754717 252:0.018867924528301886 253:0.009433962264150943 254:0.04245283018867924 255:0.04245283018867924 256:0.09905660377358491 257:0.2236842105263158 258:0.14473684210526316 259:0.05701754385964912 260:0.021929824561403508 261:0.10526315789473684 262:0.06140350877192982 263:0.18859649122807018 264:0.06578947368421052 265:0.14035087719298245 266:0.9078947368421053 267:0.10526315789473684 268:0.10526315789473684 269:0.017543859649122806 270:0.05263157894736842 271:0.02631578947368421 272:0.09210526315789473 273:0.3151515151515151 274:0.296969696969697 275:0.09090909090909091 276:0.07878787878787878 277:0.21212121212121213 278:0.5757575757575758 279:0.17575757575757575 280:0.18787878787878787 281:0.21212121212121213 282:0.32727272727272727 283:0.3939393939393939 284:0.15151515151515152 285:0.05454545454545454 286:0.09090909090909091 287:0.04242424242424243 288:0.12727272727272726 289:0.4423076923076923 290:0.1423076923076923 291:0.03461538461538462 292:0.019230769230769232 293:0.08076923076923077 294:0.8576923076923076 295:0.03076923076923077 296:0.046153846153846156 297:0.05384615384615385 298:0.07307692307692308 299:0.1423076923076923 300:0.03076923076923077 301:0.019230769230769232 302:0.06538461538461539 303:0.011538461538461539 304:0.06538461538461539 305:0.986013986013986 306:0.04195804195804196 307:0.013986013986013986 308:0.004662004662004662 309:0.02564102564102564 310:0.16083916083916083 311:0.004662004662004662 312:0.009324009324009324 313:0.016317016317016316 314:0.004662004662004662 315:0.002331002331002331 316:0.004662004662004662 317:0.002331002331002331 318:0.002331002331002331 319:0.0 320:0.002331002331002331 
1.0 1:0.12769010043041606 2:0.12769010043041606 3:0.12338593974175036 4:0.12625538020086083 5:0.12625538020086083 6:0.12625538020086083 7:0.12482065997130559 8:0.12482065997130559 9:0.1282051282051282 10:0.11813186813186813 11:0.12087912087912088 12:0.1282051282051282 13:0.12728937728937728 14:0.11904761904761904 15:0.09706959706959707 16:0.11904761904761904 17:0.12685643564356436 18:0.11262376237623763 19:0.027227722772277228 20:0.11571782178217822 21:0.12685643564356436 22:0.07549504950495049 23:0.0 24:0.09405940594059406 25:0.12941176470588237 26:0.041176470588235294 27:0.0 28:0.09632352941176471 29:0.12720588235294117 30:0.03308823529411765 31:0.0 32:0.060294117647058824 33:0.10479797979797979 34:6.313131313131314E-4 35:0.0 36:0.06818181818181818 37:0.11742424242424243 38:0.005050505050505051 39:0.0 40:0.04924242424242424 41:0.057947019867549666 42:0.0 43:0.0 44:0.002207505518763797 45:0.08112582781456953 46:0.0 47:0.0 48:0.0347682119205298 49:0.015316205533596838 50:0.0 51:0.0 52:0.0 53:0.019268774703557312 54:0.0 55:0.0 56:0.008893280632411068 57:0.0 58:0.0 59:0.0 60:0.0 61:0.012681159420289856 62:0.0 63:0.0 64:0.0 65:1.0 66:0.0 67:0.0 68:0.0 69:0.0 70:0.0 71:0.0 72:0.0 73:0.0 74:0.0 75:0.0 76:0.0 77:0.0 78:0.0 79:0.0 80:0.0 81:0.9973684210526316 82:0.007894736842105263 83:0.02368421052631579 84:0.0 85:0.0 86:0.0 87:0.002631578947368421 88:0.0 89:0.042105263157894736 90:0.010526315789473684 91:0.08157894736842106 92:0.005263157894736842 93:0.002631578947368421 94:0.0 95:0.005263157894736842 96:0.005263157894736842 97:0.3959731543624161 98:0.06040268456375839 99:0.348993288590604 100:0.040268456375838924 101:0.06040268456375839 102:0.08053691275167785 103:0.30201342281879195 104:0.09395973154362416 105:0.174496644295302 106:0.2751677852348993 107:0.6442953020134228 108:0.06711409395973154 109:0.040268456375838924 110:0.04697986577181208 111:0.21476510067114093 112:0.174496644295302 113:0.5086705202312138 114:0.046242774566473986 115:0.1329479768786127 116:0.011560693641618497 117:0.18497109826589594 118:0.16184971098265896 119:0.6936416184971098 120:0.057803468208092484 121:0.057803468208092484 122:0.07514450867052024 123:0.3872832369942196 124:0.03468208092485549 125:0.04046242774566474 126:0.023121387283236993 127:0.08670520231213873 128:0.09826589595375723 129:0.9936507936507937 130:0.009523809523809525 131:0.06984126984126984 132:0.0031746031746031746 133:0.015873015873015872 134:0.012698412698412698 135:0.0031746031746031746 136:0.0031746031746031746 137:0.05396825396825397 138:0.006349206349206349 139:0.09841269841269841 140:0.012698412698412698 141:0.0031746031746031746 142:0.006349206349206349 143:0.009523809523809525 144:0.012698412698412698 145:0.5714285714285714 146:0.07482993197278912 147:0.24489795918367346 148:0.02040816326530612 149:0.08843537414965986 150:0.08163265306122448 151:0.2585034013605442 152:0.06802721088435375 153:0.21768707482993196 154:0.2585034013605442 155:0.5510204081632653 156:0.17687074829931973 157:0.013605442176870748 158:0.06802721088435375 159:0.14285714285714285 160:0.22448979591836735 161:0.456 162:0.176 163:0.192 164:0.056 165:0.192 166:0.184 167:0.416 168:0.192 169:0.144 170:0.408 171:0.264 172:0.2 173:0.064 174:0.168 175:0.192 176:0.296 177:0.4507042253521127 178:0.15492957746478872 179:0.14084507042253522 180:0.028169014084507043 181:0.19014084507042253 182:0.6619718309859155 183:0.20422535211267606 184:0.1619718309859155 185:0.04225352112676056 186:0.2535211267605634 187:0.2605633802816901 188:0.14084507042253522 189:0.06338028169014084 190:0.08450704225352113 191:0.14084507042253522 192:0.19014084507042253 193:0.3488372093023256 194:0.10077519379844961 195:0.23255813953488372 196:0.031007751937984496 197:0.13178294573643412 198:0.2713178294573643 199:0.5271317829457365 200:0.12403100775193798 201:0.14728682170542637 202:0.13953488372093023 203:0.5581395348837209 204:0.10852713178294573 205:0.03875968992248062 206:0.08527131782945736 207:0.13953488372093023 208:0.2248062015503876 209:0.352 210:0.176 211:0.288 212:0.056 213:0.12 214:0.136 215:0.288 216:0.184 217:0.28 218:0.44 219:0.384 220:0.256 221:0.064 222:0.08 223:0.192 224:0.304 225:0.5801526717557252 226:0.24427480916030533 227:0.06870229007633588 228:0.05343511450381679 229:0.17557251908396945 230:0.366412213740458 231:0.26717557251908397 232:0.2366412213740458 233:0.20610687022900764 234:0.31297709923664124 235:0.12213740458015267 236:0.15267175572519084 237:0.06870229007633588 238:0.16793893129770993 239:0.10687022900763359 240:0.3053435114503817 241:0.17289719626168223 242:0.07009345794392523 243:0.09813084112149532 244:0.004672897196261682 245:0.1308411214953271 246:0.9205607476635514 247:0.056074766355140186 248:0.056074766355140186 249:0.04672897196261682 250:0.02336448598130841 251:0.2523364485981308 252:0.06074766355140187 253:0.004672897196261682 254:0.04672897196261682 255:0.04672897196261682 256:0.11214953271028037 257:0.1288888888888889 258:0.16444444444444445 259:0.035555555555555556 260:0.013333333333333334 261:0.08444444444444445 262:0.08444444444444445 263:0.13777777777777778 264:0.057777777777777775 265:0.12 266:0.9466666666666667 267:0.08 268:0.04888888888888889 269:0.008888888888888889 270:0.06222222222222222 271:0.017777777777777778 272:0.05333333333333334 273:0.3129251700680272 274:0.25170068027210885 275:0.1564625850340136 276:0.10884353741496598 277:0.30612244897959184 278:0.5782312925170068 279:0.2925170068027211 280:0.1360544217687075 281:0.20408163265306123 282:0.2857142857142857 283:0.3401360544217687 284:0.1292517006802721 285:0.04081632653061224 286:0.08843537414965986 287:0.07482993197278912 288:0.09523809523809523 289:0.2574626865671642 290:0.08208955223880597 291:0.05223880597014925 292:0.011194029850746268 293:0.05970149253731343 294:0.9440298507462687 295:0.018656716417910446 296:0.033582089552238806 297:0.03731343283582089 298:0.0708955223880597 299:0.1455223880597015 300:0.026119402985074626 301:0.018656716417910446 302:0.041044776119402986 303:0.018656716417910446 304:0.048507462686567165 305:0.9437869822485208 306:0.07988165680473373 307:0.020710059171597635 308:0.01775147928994083 309:0.038461538461538464 310:0.3165680473372781 311:0.0029585798816568047 312:0.0 313:0.014792899408284023 314:0.014792899408284023 315:0.0029585798816568047 316:0.0029585798816568047 317:0.005917159763313609 318:0.008875739644970414 319:0.0029585798816568047 320:0.005917159763313609 
1.0 1:0.1291248206599713 2:0.12769010043041606 3:0.1291248206599713 4:0.12625538020086083 5:0.1291248206599713 6:0.12625538020086083 7:0.10903873744619799 8:0.12482065997130559 9:0.12728937728937728 10:0.08424908424908426 11:0.06776556776556776 12:0.12362637362637363 13:0.08882783882783883 14:0.12087912087912088 15:0.0924908424908425 16:0.11904761904761904 17:0.11200495049504951 18:0.0037128712871287127 19:0.0018564356435643563 20:0.1150990099009901 21:0.08849009900990099 22:0.018564356435643563 23:6.188118811881188E-4 24:0.06930693069306931 25:0.07573529411764705 26:0.0 27:0.0 28:0.09705882352941177 29:0.08088235294117647 30:0.0 31:0.0 32:0.04411764705882353 33:0.049873737373737376 34:0.0 35:0.0 36:0.07954545454545454 37:0.0707070707070707 38:0.0 39:0.0 40:0.037247474747474744 41:0.0347682119205298 42:0.0 43:0.0 44:0.026490066225165563 45:0.02152317880794702 46:0.0 47:0.0 48:0.03421633554083885 49:0.018280632411067192 50:0.0 51:0.0 52:0.0 53:0.0 54:0.0 55:0.0 56:0.025197628458498024 57:9.057971014492754E-4 58:0.0 59:0.0 60:0.0 61:0.0 62:0.0 63:0.0 64:0.0018115942028985507 65:1.0 66:0.0 67:0.0 68:0.0 69:0.0 70:0.0 71:0.0 72:0.0 73:0.0 74:0.0 75:0.0 76:0.0 77:0.0 78:0.0 79:0.0 80:0.0 81:0.9855595667870036 82:0.01444043321299639 83:0.09747292418772563 84:0.01444043321299639 85:0.02888086642599278 86:0.010830324909747292 87:0.02888086642599278 88:0.010830324909747292 89:0.07220216606498195 90:0.018050541516245487 91:0.11191335740072202 92:0.01444043321299639 93:0.010830324909747292 94:0.007220216606498195 95:0.032490974729241874 96:0.01444043321299639 97:0.8478260869565217 98:0.059782608695652176 99:0.22826086956521738 100:0.04891304347826087 101:0.06521739130434782 102:0.04891304347826087 103:0.17391304347826086 104:0.043478260869565216 105:0.08695652173913043 106:0.021739130434782608 107:0.4076086956521739 108:0.06521739130434782 109:0.0 110:0.016304347826086956 111:0.07608695652173914 112:0.02717391304347826 113:0.6538461538461539 114:0.10897435897435898 115:0.19230769230769232 116:0.038461538461538464 117:0.20512820512820512 118:0.1858974358974359 119:0.4230769230769231 120:0.12179487179487179 121:0.10897435897435898 122:0.07692307692307693 123:0.4551282051282051 124:0.08333333333333333 125:0.038461538461538464 126:0.05128205128205128 127:0.08974358974358974 128:0.10897435897435898 129:1.0 130:0.005115089514066497 131:0.017902813299232736 132:0.0 133:0.0 134:0.0 135:0.005115089514066497 136:0.0 137:0.005115089514066497 138:0.005115089514066497 139:0.0 140:0.0 141:0.0 142:0.0 143:0.0025575447570332483 144:0.0025575447570332483 145:0.6762589928057554 146:0.10071942446043165 147:0.1510791366906475 148:0.03597122302158273 149:0.09352517985611511 150:0.02877697841726619 151:0.1510791366906475 152:0.1079136690647482 153:0.28776978417266186 154:0.31654676258992803 155:0.4748201438848921 156:0.17266187050359713 157:0.02158273381294964 158:0.09352517985611511 159:0.07194244604316546 160:0.1510791366906475 161:0.4732142857142857 162:0.22321428571428573 163:0.3482142857142857 164:0.08035714285714286 165:0.1875 166:0.30357142857142855 167:0.26785714285714285 168:0.15178571428571427 169:0.21428571428571427 170:0.25892857142857145 171:0.3392857142857143 172:0.15178571428571427 173:0.07142857142857142 174:0.10714285714285714 175:0.25892857142857145 176:0.20535714285714285 177:0.35135135135135137 178:0.06756756756756757 179:0.2635135135135135 180:0.04054054054054054 181:0.35135135135135137 182:0.43243243243243246 183:0.5 184:0.12162162162162163 185:0.060810810810810814 186:0.08108108108108109 187:0.41216216216216217 188:0.07432432432432433 189:0.033783783783783786 190:0.02702702702702703 191:0.10135135135135136 192:0.18243243243243243 193:0.8708333333333333 194:0.016666666666666666 195:0.10416666666666667 196:0.0125 197:0.0125 198:0.004166666666666667 199:0.0375 200:0.008333333333333333 201:0.075 202:0.020833333333333332 203:0.4791666666666667 204:0.025 205:0.0125 206:0.0 207:0.0125 208:0.008333333333333333 209:0.47019867549668876 210:0.1390728476821192 211:0.2847682119205298 212:0.059602649006622516 213:0.10596026490066225 214:0.10596026490066225 215:0.12582781456953643 216:0.06622516556291391 217:0.18543046357615894 218:0.09933774834437085 219:0.7549668874172185 220:0.07947019867549669 221:0.039735099337748346 222:0.052980132450331126 223:0.039735099337748346 224:0.09271523178807947 225:0.47058823529411764 226:0.125 227:0.11764705882352941 228:0.058823529411764705 229:0.11764705882352941 230:0.5441176470588235 231:0.07352941176470588 232:0.08088235294117647 233:0.19117647058823528 234:0.07352941176470588 235:0.5294117647058824 236:0.17647058823529413 237:0.04411764705882353 238:0.11029411764705882 239:0.051470588235294115 240:0.23529411764705882 241:0.7037037037037037 242:0.26455026455026454 243:0.047619047619047616 244:0.021164021164021163 245:0.18518518518518517 246:0.5978835978835979 247:0.06349206349206349 248:0.06349206349206349 249:0.08465608465608465 250:0.07407407407407407 251:0.1164021164021164 252:0.026455026455026454 253:0.015873015873015872 254:0.06349206349206349 255:0.015873015873015872 256:0.08465608465608465 257:0.3836477987421384 258:0.08176100628930817 259:0.25157232704402516 260:0.050314465408805034 261:0.12578616352201258 262:0.10062893081761007 263:0.12578616352201258 264:0.05660377358490566 265:0.18238993710691823 266:0.20125786163522014 267:0.7924528301886793 268:0.12578616352201258 269:0.03773584905660377 270:0.025157232704402517 271:0.11320754716981132 272:0.06289308176100629 273:0.46099290780141844 274:0.1347517730496454 275:0.19858156028368795 276:0.10638297872340426 277:0.2127659574468085 278:0.6595744680851063 279:0.09929078014184398 280:0.1276595744680851 281:0.1702127659574468 282:0.07092198581560284 283:0.3404255319148936 284:0.07092198581560284 285:0.028368794326241134 286:0.0851063829787234 287:0.0851063829787234 288:0.2127659574468085 289:0.8564356435643564 290:0.16336633663366337 291:0.0594059405940594 292:0.009900990099009901 293:0.09405940594059406 294:0.4405940594059406 295:0.024752475247524754 296:0.054455445544554455 297:0.06930693069306931 298:0.034653465346534656 299:0.08415841584158416 300:0.04950495049504951 301:0.034653465346534656 302:0.0297029702970297 303:0.024752475247524754 304:0.10891089108910891 305:1.0 306:0.0 307:0.0 308:0.0 309:0.016842105263157894 310:0.004210526315789474 311:0.002105263157894737 312:0.0 313:0.0 314:0.0 315:0.0 316:0.0 317:0.0 318:0.0 319:0.0 320:0.0 
1.0 1:0.1291248206599713 2:0.1291248206599713 3:0.1291248206599713 4:0.12769010043041606 5:0.1291248206599713 6:0.12338593974175036 7:0.1291248206599713 8:0.12482065997130559 9:0.12728937728937728 10:0.12637362637362637 11:0.12362637362637363 12:0.12728937728937728 13:0.12637362637362637 14:0.12362637362637363 15:0.1163003663003663 16:0.12545787545787546 17:0.12871287128712872 18:0.04888613861386139 19:0.02103960396039604 20:0.12747524752475248 21:0.1219059405940594 22:0.06497524752475248 23:0.0 24:0.0983910891089109 25:0.10808823529411765 26:0.0 27:0.0 28:0.11102941176470588 29:0.07720588235294118 30:0.0 31:0.0 32:0.07279411764705883 33:0.0726010101010101 34:0.0 35:0.0 36:0.0928030303030303 37:0.061237373737373736 38:0.0 39:0.0 40:0.054924242424242424 41:0.04746136865342163 42:0.0 43:0.0 44:0.04856512141280353 45:0.052428256070640174 46:0.0 47:0.0 48:0.0347682119205298 49:0.023715415019762844 50:0.0 51:0.0 52:0.0 53:0.014822134387351778 54:0.0 55:0.0 56:0.038537549407114624 57:0.002717391304347826 58:0.0 59:0.0 60:0.0 61:0.0 62:0.0 63:0.0 64:0.01358695652173913 65:1.0 66:0.0 67:0.0 68:0.0 69:0.0 70:0.0 71:0.0 72:0.0 73:0.0 74:0.0 75:0.0 76:0.0 77:0.0 78:0.0 79:0.0 80:0.0 81:0.9831649831649831 82:0.026936026936026935 83:0.07744107744107744 84:0.010101010101010102 85:0.026936026936026935 86:0.02356902356902357 87:0.013468013468013467 88:0.010101010101010102 89:0.0707070707070707 90:0.026936026936026935 91:0.15488215488215487 92:0.016835016835016835 93:0.016835016835016835 94:0.016835016835016835 95:0.016835016835016835 96:0.02356902356902357 97:0.7171052631578947 98:0.13157894736842105 99:0.3026315789473684 100:0.02631578947368421 101:0.125 102:0.23684210526315788 103:0.24342105263157895 104:0.05263157894736842 105:0.18421052631578946 106:0.24342105263157895 107:0.34868421052631576 108:0.08552631578947369 109:0.02631578947368421 110:0.046052631578947366 111:0.1118421052631579 112:0.07894736842105263 113:0.4444444444444444 114:0.2222222222222222 115:0.14583333333333334 116:0.034722222222222224 117:0.2638888888888889 118:0.3472222222222222 119:0.4513888888888889 120:0.125 121:0.125 122:0.11805555555555555 123:0.5277777777777778 124:0.04861111111111111 125:0.04861111111111111 126:0.09027777777777778 127:0.05555555555555555 128:0.0763888888888889 129:1.0 130:0.0 131:0.0332541567695962 132:0.007125890736342043 133:0.0023752969121140144 134:0.0 135:0.0023752969121140144 136:0.0 137:0.0166270783847981 138:0.004750593824228029 139:0.0 140:0.0 141:0.0 142:0.0 143:0.0 144:0.0023752969121140144 145:0.6217948717948718 146:0.1346153846153846 147:0.1282051282051282 148:0.02564102564102564 149:0.14743589743589744 150:0.4423076923076923 151:0.1282051282051282 152:0.08974358974358974 153:0.14743589743589744 154:0.15384615384615385 155:0.5128205128205128 156:0.08974358974358974 157:0.01282051282051282 158:0.08974358974358974 159:0.07692307692307693 160:0.08333333333333333 161:0.3046875 162:0.171875 163:0.171875 164:0.0625 165:0.125 166:0.2265625 167:0.3125 168:0.140625 169:0.3125 170:0.5625 171:0.3359375 172:0.2265625 173:0.046875 174:0.1953125 175:0.1328125 176:0.1875 177:0.5244755244755245 178:0.17482517482517482 179:0.11888111888111888 180:0.03496503496503497 181:0.1258741258741259 182:0.5244755244755245 183:0.11888111888111888 184:0.1888111888111888 185:0.13986013986013987 186:0.15384615384615385 187:0.4755244755244755 188:0.13986013986013987 189:0.06293706293706294 190:0.11188811188811189 191:0.04895104895104895 192:0.20279720279720279 193:0.6171428571428571 194:0.05714285714285714 195:0.14857142857142858 196:0.02857142857142857 197:0.1657142857142857 198:0.5428571428571428 199:0.045714285714285714 200:0.05142857142857143 201:0.11428571428571428 202:0.022857142857142857 203:0.4857142857142857 204:0.09142857142857143 205:0.022857142857142857 206:0.03428571428571429 207:0.06285714285714286 208:0.08 209:0.13142857142857142 210:0.06285714285714286 211:0.14857142857142858 212:0.022857142857142857 213:0.07428571428571429 214:0.5771428571428572 215:0.12571428571428572 216:0.08571428571428572 217:0.19428571428571428 218:0.08571428571428572 219:0.7257142857142858 220:0.12571428571428572 221:0.022857142857142857 222:0.05142857142857143 223:0.08571428571428572 224:0.05142857142857143 225:0.3691275167785235 226:0.10738255033557047 227:0.1610738255033557 228:0.026845637583892617 229:0.12080536912751678 230:0.4161073825503356 231:0.09395973154362416 232:0.10738255033557047 233:0.2214765100671141 234:0.12751677852348994 235:0.6644295302013423 236:0.28859060402684567 237:0.020134228187919462 238:0.026845637583892617 239:0.12751677852348994 240:0.14093959731543623 241:0.46766169154228854 242:0.15422885572139303 243:0.05970149253731343 244:0.01990049751243781 245:0.08955223880597014 246:0.8258706467661692 247:0.04477611940298507 248:0.04477611940298507 249:0.06965174129353234 250:0.024875621890547265 251:0.22885572139303484 252:0.06965174129353234 253:0.01990049751243781 254:0.029850746268656716 255:0.024875621890547265 256:0.06467661691542288 257:0.26875 258:0.1125 259:0.10625 260:0.05625 261:0.0625 262:0.41875 263:0.25 264:0.10625 265:0.19375 266:0.58125 267:0.4625 268:0.20625 269:0.05625 270:0.08125 271:0.04375 272:0.11875 273:0.3516483516483517 274:0.02197802197802198 275:0.1813186813186813 276:0.07692307692307693 277:0.14285714285714285 278:0.46703296703296704 279:0.14835164835164835 280:0.12637362637362637 281:0.15934065934065933 282:0.03296703296703297 283:0.7142857142857143 284:0.13736263736263737 285:0.027472527472527472 286:0.016483516483516484 287:0.06043956043956044 288:0.08241758241758242 289:0.5058823529411764 290:0.10588235294117647 291:0.043137254901960784 292:0.00784313725490196 293:0.058823529411764705 294:0.8274509803921568 295:0.00392156862745098 296:0.023529411764705882 297:0.047058823529411764 298:0.03137254901960784 299:0.19607843137254902 300:0.01568627450980392 301:0.00784313725490196 302:0.023529411764705882 303:0.00784313725490196 304:0.054901960784313725 305:1.0 306:0.010822510822510822 307:0.004329004329004329 308:0.0 309:0.015151515151515152 310:0.0367965367965368 311:0.0 312:0.0021645021645021645 313:0.004329004329004329 314:0.0021645021645021645 315:0.0021645021645021645 316:0.0 317:0.0 318:0.0021645021645021645 319:0.0021645021645021645 320:0.0 
1.0 1:0.1291248206599713 2:0.12625538020086083 3:0.1291248206599713 4:0.12625538020086083 5:0.1291248206599713 6:0.12769010043041606 7:0.1291248206599713 8:0.12625538020086083 9:0.12637362637362637 10:0.12637362637362637 11:0.11172161172161173 12:0.12912087912087913 13:0.12637362637362637 14:0.12912087912087913 15:0.09981684981684982 16:0.13186813186813187 17:0.11819306930693069 18:0.04826732673267327 19:0.017326732673267328 20:0.12685643564356436 21:0.12933168316831684 22:0.07301980198019802 23:0.0297029702970297 24:0.11757425742574257 25:0.0713235294117647 26:7.352941176470588E-4 27:0.0 28:0.10955882352941176 29:0.10441176470588236 30:0.0022058823529411764 31:0.005147058823529412 32:0.12426470588235294 33:0.049873737373737376 34:0.0 35:0.0 36:0.0946969696969697 37:0.059343434343434344 38:0.0 39:0.0 40:0.10858585858585859 41:0.04249448123620309 42:0.0 43:0.0 44:0.076158940397351 45:0.03421633554083885 46:0.0 47:0.0 48:0.07450331125827815 49:0.030138339920948616 50:0.0 51:0.0 52:0.04891304347826087 53:0.004940711462450593 54:0.0 55:0.0 56:0.04397233201581028 57:0.019021739130434784 58:0.0 59:0.0 60:0.0 61:0.0 62:0.0 63:0.0 64:0.010869565217391304 65:1.0 66:0.0 67:0.010101010101010102 68:0.0 69:0.0 70:0.0 71:0.0 72:0.0 73:0.0 74:0.0 75:0.0 76:0.0 77:0.0 78:0.0 79:0.0 80:0.0 81:0.9714285714285714 82:0.050793650793650794 83:0.13333333333333333 84:0.0031746031746031746 85:0.02857142857142857 86:0.012698412698412698 87:0.012698412698412698 88:0.012698412698412698 89:0.08571428571428572 90:0.022222222222222223 91:0.16507936507936508 92:0.02857142857142857 93:0.0031746031746031746 94:0.009523809523809525 95:0.02857142857142857 96:0.01904761904761905 97:0.6243093922651933 98:0.07734806629834254 99:0.32044198895027626 100:0.027624309392265192 101:0.14917127071823205 102:0.19889502762430938 103:0.2430939226519337 104:0.03867403314917127 105:0.11602209944751381 106:0.08839779005524862 107:0.580110497237569 108:0.03314917127071823 109:0.022099447513812154 110:0.016574585635359115 111:0.143646408839779 112:0.08287292817679558 113:0.26704545454545453 114:0.13068181818181818 115:0.2159090909090909 116:0.011363636363636364 117:0.1534090909090909 118:0.4772727272727273 119:0.5965909090909091 120:0.13068181818181818 121:0.017045454545454544 122:0.11363636363636363 123:0.4659090909090909 124:0.028409090909090908 125:0.011363636363636364 126:0.08522727272727272 127:0.056818181818181816 128:0.07954545454545454 129:0.9947089947089947 130:0.018518518518518517 131:0.06613756613756613 132:0.0026455026455026454 133:0.026455026455026454 134:0.018518518518518517 135:0.013227513227513227 136:0.007936507936507936 137:0.06613756613756613 138:0.018518518518518517 139:0.06878306878306878 140:0.0026455026455026454 141:0.005291005291005291 142:0.0 143:0.010582010582010581 144:0.0026455026455026454 145:0.5154639175257731 146:0.07216494845360824 147:0.13402061855670103 148:0.030927835051546393 149:0.10309278350515463 150:0.24742268041237114 151:0.0979381443298969 152:0.03608247422680412 153:0.13917525773195877 154:0.10309278350515463 155:0.7525773195876289 156:0.10309278350515463 157:0.010309278350515464 158:0.04639175257731959 159:0.06701030927835051 160:0.11855670103092783 161:0.4236111111111111 162:0.1388888888888889 163:0.22916666666666666 164:0.020833333333333332 165:0.20833333333333334 166:0.2638888888888889 167:0.4097222222222222 168:0.08333333333333333 169:0.2013888888888889 170:0.3472222222222222 171:0.3958333333333333 172:0.1527777777777778 173:0.034722222222222224 174:0.13194444444444445 175:0.14583333333333334 176:0.2847222222222222 177:0.43352601156069365 178:0.09248554913294797 179:0.14450867052023122 180:0.011560693641618497 181:0.13872832369942195 182:0.6589595375722543 183:0.15028901734104047 184:0.10982658959537572 185:0.06936416184971098 186:0.05202312138728324 187:0.42196531791907516 188:0.10404624277456648 189:0.03468208092485549 190:0.08670520231213873 191:0.09826589595375723 192:0.2832369942196532 193:0.6698113207547169 194:0.07547169811320754 195:0.1792452830188679 196:0.018867924528301886 197:0.10377358490566038 198:0.12735849056603774 199:0.05188679245283019 200:0.03773584905660377 201:0.1179245283018868 202:0.0660377358490566 203:0.6698113207547169 204:0.0660377358490566 205:0.009433962264150943 206:0.009433962264150943 207:0.06132075471698113 208:0.09433962264150944 209:0.7094972067039106 210:0.1340782122905028 211:0.24022346368715083 212:0.0111731843575419 213:0.30726256983240224 214:0.17318435754189945 215:0.329608938547486 216:0.0335195530726257 217:0.1452513966480447 218:0.0782122905027933 219:0.3854748603351955 220:0.05027932960893855 221:0.03910614525139665 222:0.0446927374301676 223:0.0670391061452514 224:0.0446927374301676 225:0.328125 226:0.13020833333333334 227:0.078125 228:0.010416666666666666 229:0.11458333333333333 230:0.75 231:0.046875 232:0.078125 233:0.09375 234:0.08854166666666667 235:0.46875 236:0.0625 237:0.010416666666666666 238:0.11458333333333333 239:0.052083333333333336 240:0.17708333333333334 241:0.8484848484848485 242:0.19480519480519481 243:0.03463203463203463 244:0.012987012987012988 245:0.0735930735930736 246:0.4458874458874459 247:0.017316017316017316 248:0.05627705627705628 249:0.03896103896103896 250:0.03896103896103896 251:0.15151515151515152 252:0.03896103896103896 253:0.030303030303030304 254:0.06493506493506493 255:0.025974025974025976 256:0.09090909090909091 257:0.47701149425287354 258:0.23563218390804597 259:0.1206896551724138 260:0.08045977011494253 261:0.10344827586206896 262:0.13218390804597702 263:0.27586206896551724 264:0.04597701149425287 265:0.1896551724137931 266:0.6839080459770115 267:0.14367816091954022 268:0.13793103448275862 269:0.028735632183908046 270:0.09770114942528736 271:0.10344827586206896 272:0.16091954022988506 273:0.3742690058479532 274:0.32748538011695905 275:0.14035087719298245 276:0.04093567251461988 277:0.15204678362573099 278:0.6432748538011696 279:0.04093567251461988 280:0.15204678362573099 281:0.13450292397660818 282:0.17543859649122806 283:0.40350877192982454 284:0.08771929824561403 285:0.017543859649122806 286:0.17543859649122806 287:0.05847953216374269 288:0.14619883040935672 289:0.6933962264150944 290:0.14622641509433962 291:0.04245283018867924 292:0.03773584905660377 293:0.21226415094339623 294:0.6226415094339622 295:0.05188679245283019 296:0.14150943396226415 297:0.06132075471698113 298:0.05188679245283019 299:0.14150943396226415 300:0.018867924528301886 301:0.0330188679245283 302:0.08962264150943396 303:0.02830188679245283 304:0.10377358490566038 305:1.0 306:0.0 307:0.0 308:0.0 309:0.0019083969465648854 310:0.0 311:0.0 312:0.0 313:0.0 314:0.0 315:0.0 316:0.0 317:0.0 318:0.0 319:0.0 320:0.0 
1.0 1:0.1291248206599713 2:0.12625538020086083 3:0.1291248206599713 4:0.12482065997130559 5:0.1291248206599713 6:0.12482065997130559 7:0.1291248206599713 8:0.12338593974175036 9:0.12728937728937728 10:0.1282051282051282 11:0.12728937728937728 12:0.1282051282051282 13:0.12728937728937728 14:0.12545787545787546 15:0.07234432234432235 16:0.11538461538461539 17:0.12747524752475248 18:0.09282178217821782 19:0.08415841584158416 20:0.12747524752475248 21:0.12747524752475248 22:0.08787128712871287 23:0.0 24:0.06435643564356436 25:0.11764705882352941 26:0.008823529411764706 27:0.022794117647058822 28:0.12279411764705882 29:0.12941176470588237 30:0.0661764705882353 31:0.0 32:0.04264705882352941 33:0.07828282828282829 34:0.0 35:0.0 36:0.059343434343434344 37:0.11553030303030302 38:0.008207070707070708 39:0.0 40:0.03851010101010101 41:0.054635761589403975 42:0.0 43:0.0 44:0.0 45:0.05684326710816777 46:0.0 47:0.0 48:0.03532008830022075 49:0.03606719367588933 50:0.0 51:0.0 52:0.0 53:0.009387351778656126 54:0.0 55:0.0 56:0.030138339920948616 57:0.020833333333333332 58:0.0 59:0.0 60:0.0 61:0.0 62:0.0 63:0.0 64:0.026268115942028984 65:1.0 66:0.0 67:0.0 68:0.0 69:0.0 70:0.0 71:0.0 72:0.0 73:0.0 74:0.0 75:0.0 76:0.0 77:0.0 78:0.0 79:0.0 80:0.0 81:1.0 82:0.00980392156862745 83:0.02696078431372549 84:0.004901960784313725 85:0.00980392156862745 86:0.0 87:0.0024509803921568627 88:0.0 89:0.05392156862745098 90:0.007352941176470588 91:0.012254901960784314 92:0.012254901960784314 93:0.004901960784313725 94:0.0024509803921568627 95:0.0024509803921568627 96:0.014705882352941176 97:0.27439024390243905 98:0.054878048780487805 99:0.2073170731707317 100:0.06097560975609756 101:0.07926829268292683 102:0.07317073170731707 103:0.23170731707317074 104:0.042682926829268296 105:0.2926829268292683 106:0.3475609756097561 107:0.7378048780487805 108:0.1951219512195122 109:0.04878048780487805 110:0.042682926829268296 111:0.0975609756097561 112:0.10975609756097561 113:0.5405405405405406 114:0.12162162162162163 115:0.16216216216216217 116:0.0472972972972973 117:0.3581081081081081 118:0.33783783783783783 119:0.39864864864864863 120:0.22297297297297297 121:0.12837837837837837 122:0.10810810810810811 123:0.3918918918918919 124:0.0945945945945946 125:0.02702702702702703 126:0.08783783783783784 127:0.08108108108108109 128:0.10135135135135136 129:1.0 130:0.0 131:0.0 132:0.0 133:0.0 134:0.0 135:0.0 136:0.0 137:0.0 138:0.0 139:0.0 140:0.0 141:0.0 142:0.0 143:0.0 144:0.0 145:0.9074889867841409 146:0.07488986784140969 147:0.13656387665198239 148:0.00881057268722467 149:0.05726872246696035 150:0.030837004405286344 151:0.13656387665198239 152:0.030837004405286344 153:0.16299559471365638 154:0.07488986784140969 155:0.31277533039647576 156:0.05726872246696035 157:0.004405286343612335 158:0.01762114537444934 159:0.03524229074889868 160:0.04405286343612335 161:0.474025974025974 162:0.12337662337662338 163:0.12987012987012986 164:0.032467532467532464 165:0.12987012987012986 166:0.08441558441558442 167:0.474025974025974 168:0.09090909090909091 169:0.18181818181818182 170:0.564935064935065 171:0.18831168831168832 172:0.22077922077922077 173:0.01948051948051948 174:0.07792207792207792 175:0.15584415584415584 176:0.13636363636363635 177:0.6871508379888268 178:0.13966480446927373 179:0.1452513966480447 180:0.027932960893854747 181:0.39664804469273746 182:0.2122905027932961 183:0.5027932960893855 184:0.061452513966480445 185:0.0670391061452514 186:0.0893854748603352 187:0.08379888268156424 188:0.03910614525139665 189:0.027932960893854747 190:0.07262569832402235 191:0.0446927374301676 192:0.055865921787709494 193:0.8755186721991701 194:0.03734439834024896 195:0.17012448132780084 196:0.029045643153526972 197:0.03734439834024896 198:0.012448132780082987 199:0.07883817427385892 200:0.012448132780082987 201:0.0912863070539419 202:0.016597510373443983 203:0.42738589211618255 204:0.04149377593360996 205:0.008298755186721992 206:0.024896265560165973 207:0.06639004149377593 208:0.04149377593360996 209:0.41379310344827586 210:0.11494252873563218 211:0.2988505747126437 212:0.028735632183908046 213:0.07471264367816093 214:0.017241379310344827 215:0.10344827586206896 216:0.040229885057471264 217:0.39080459770114945 218:0.14367816091954022 219:0.7011494252873564 220:0.1781609195402299 221:0.022988505747126436 222:0.034482758620689655 223:0.08620689655172414 224:0.08045977011494253 225:0.5428571428571428 226:0.3142857142857143 227:0.12857142857142856 228:0.03571428571428571 229:0.14285714285714285 230:0.3 231:0.24285714285714285 232:0.08571428571428572 233:0.22142857142857142 234:0.45714285714285713 235:0.2642857142857143 236:0.17857142857142858 237:0.05 238:0.14285714285714285 239:0.11428571428571428 240:0.17142857142857143 241:0.39037433155080214 242:0.2887700534759358 243:0.06951871657754011 244:0.0213903743315508 245:0.18716577540106952 246:0.8128342245989305 247:0.0748663101604278 248:0.11229946524064172 249:0.06951871657754011 250:0.0855614973262032 251:0.11764705882352941 252:0.0855614973262032 253:0.03208556149732621 254:0.0962566844919786 255:0.0213903743315508 256:0.0748663101604278 257:0.32 258:0.10857142857142857 259:0.30857142857142855 260:0.08 261:0.06857142857142857 262:0.02857142857142857 263:0.25142857142857145 264:0.04 265:0.3657142857142857 266:0.52 267:0.49714285714285716 268:0.2342857142857143 269:0.005714285714285714 270:0.017142857142857144 271:0.09142857142857143 272:0.06285714285714286 273:0.432258064516129 274:0.36774193548387096 275:0.4129032258064516 276:0.14193548387096774 277:0.16774193548387098 278:0.3225806451612903 279:0.18064516129032257 280:0.09032258064516129 281:0.21935483870967742 282:0.23225806451612904 283:0.41935483870967744 284:0.14838709677419354 285:0.05806451612903226 286:0.0967741935483871 287:0.06451612903225806 288:0.03225806451612903 289:0.4 290:0.22941176470588234 291:0.23529411764705882 292:0.052941176470588235 293:0.17647058823529413 294:0.6647058823529411 295:0.10588235294117647 296:0.11176470588235295 297:0.18823529411764706 298:0.15294117647058825 299:0.38235294117647056 300:0.12941176470588237 301:0.03529411764705882 302:0.052941176470588235 303:0.06470588235294118 304:0.10588235294117647 305:0.41975308641975306 306:0.15637860082304528 307:0.07818930041152264 308:0.012345679012345678 309:0.13580246913580246 310:0.8518518518518519 311:0.024691358024691357 312:0.053497942386831275 313:0.04938271604938271 314:0.00411522633744856 315:0.18518518518518517 316:0.02880658436213992 317:0.012345679012345678 318:0.037037037037037035 319:0.03292181069958848 320:0.07818930041152264 
1.0 1:0.133428981348637 2:0.13199426111908177 3:0.133428981348637 4:0.13055954088952654 5:0.133428981348637 6:0.13055954088952654 7:0.133428981348637 8:0.13055954088952654 9:0.13003663003663005 10:0.1282051282051282 11:0.1108058608058608 12:0.11904761904761904 13:0.13003663003663005 14:0.12637362637362637 15:0.10897435897435898 16:0.12545787545787546 17:0.12871287128712872 18:0.10767326732673267 19:0.02042079207920792 20:0.09962871287128713 21:0.12871287128712872 22:0.05816831683168317 23:0.004331683168316832 24:0.10705445544554455 25:0.12941176470588237 26:0.027941176470588237 27:0.0 28:0.07941176470588235 29:0.12279411764705882 30:0.0022058823529411764 31:0.0 32:0.07794117647058824 33:0.10416666666666667 34:0.0 35:0.0 36:0.05808080808080808 37:0.10353535353535354 38:0.0 39:0.0 40:0.06060606060606061 41:0.0739514348785872 42:0.0 43:0.0 44:0.02704194260485651 45:0.09161147902869757 46:0.0 47:0.0 48:0.04249448123620309 49:0.042490118577075096 50:0.0 51:0.0 52:0.005434782608695652 53:0.07015810276679842 54:0.0 55:0.0 56:0.023221343873517788 57:0.004528985507246377 58:0.0 59:0.0 60:0.0 61:0.028079710144927536 62:0.0 63:0.0 64:0.0036231884057971015 65:1.0 66:0.0 67:0.0 68:0.0 69:0.0 70:0.0 71:0.0 72:0.0 73:0.0 74:0.0 75:0.0 76:0.0 77:0.0 78:0.0 79:0.0 80:0.0 81:0.9947368421052631 82:0.018421052631578946 83:0.06315789473684211 84:0.005263157894736842 85:0.03684210526315789 86:0.002631578947368421 87:0.010526315789473684 88:0.005263157894736842 89:0.04473684210526316 90:0.013157894736842105 91:0.07368421052631578 92:0.010526315789473684 93:0.010526315789473684 94:0.007894736842105263 95:0.015789473684210527 96:0.002631578947368421 97:0.7743362831858407 98:0.048672566371681415 99:0.17256637168141592 100:0.008849557522123894 101:0.030973451327433628 102:0.19469026548672566 103:0.0752212389380531 104:0.02654867256637168 105:0.10619469026548672 106:0.03982300884955752 107:0.5530973451327433 108:0.048672566371681415 109:0.0 110:0.022123893805309734 111:0.06637168141592921 112:0.04424778761061947 113:0.26380368098159507 114:0.24539877300613497 115:0.15950920245398773 116:0.018404907975460124 117:0.2392638036809816 118:0.5153374233128835 119:0.4110429447852761 120:0.147239263803681 121:0.0736196319018405 122:0.12883435582822086 123:0.5337423312883436 124:0.06134969325153374 125:0.018404907975460124 126:0.0736196319018405 127:0.07975460122699386 128:0.09815950920245399 129:0.9948320413436692 130:0.020671834625323 131:0.08785529715762273 132:0.00516795865633075 133:0.025839793281653745 134:0.0103359173126615 135:0.012919896640826873 136:0.002583979328165375 137:0.05426356589147287 138:0.01808785529715762 139:0.031007751937984496 140:0.007751937984496124 141:0.007751937984496124 142:0.0 143:0.007751937984496124 144:0.00516795865633075 145:0.5633802816901409 146:0.09389671361502347 147:0.17370892018779344 148:0.014084507042253521 149:0.107981220657277 150:0.22535211267605634 151:0.07511737089201878 152:0.023474178403755867 153:0.08450704225352113 154:0.04225352112676056 155:0.7464788732394366 156:0.028169014084507043 157:0.004694835680751174 158:0.023474178403755867 159:0.07042253521126761 160:0.07042253521126761 161:0.32142857142857145 162:0.10119047619047619 163:0.14285714285714285 164:0.0 165:0.17261904761904762 166:0.5476190476190477 167:0.3333333333333333 168:0.08333333333333333 169:0.08928571428571429 170:0.14285714285714285 171:0.5892857142857143 172:0.10714285714285714 173:0.011904761904761904 174:0.10714285714285714 175:0.10119047619047619 176:0.125 177:0.35555555555555557 178:0.07777777777777778 179:0.18888888888888888 180:0.027777777777777776 181:0.12222222222222222 182:0.6444444444444445 183:0.07222222222222222 184:0.08333333333333333 185:0.09444444444444444 186:0.03888888888888889 187:0.5444444444444444 188:0.08333333333333333 189:0.016666666666666666 190:0.09444444444444444 191:0.07222222222222222 192:0.2611111111111111 193:0.6428571428571429 194:0.10204081632653061 195:0.20408163265306123 196:0.025510204081632654 197:0.12755102040816327 198:0.17346938775510204 199:0.02040816326530612 200:0.04591836734693878 201:0.15306122448979592 202:0.04081632653061224 203:0.6632653061224489 204:0.07142857142857142 205:0.05612244897959184 206:0.025510204081632654 207:0.08163265306122448 208:0.11734693877551021 209:0.6424581005586593 210:0.09497206703910614 211:0.26256983240223464 212:0.01675977653631285 213:0.3016759776536313 214:0.21787709497206703 215:0.4692737430167598 216:0.10614525139664804 217:0.1340782122905028 218:0.027932960893854747 219:0.3463687150837989 220:0.0223463687150838 221:0.0223463687150838 222:0.0111731843575419 223:0.0893854748603352 224:0.027932960893854747 225:0.31862745098039214 226:0.08333333333333333 227:0.07352941176470588 228:0.00980392156862745 229:0.10294117647058823 230:0.6813725490196079 231:0.0392156862745098 232:0.06862745098039216 233:0.05392156862745098 234:0.06862745098039216 235:0.6029411764705882 236:0.0196078431372549 237:0.004901960784313725 238:0.058823529411764705 239:0.09313725490196079 240:0.1715686274509804 241:0.6619718309859155 242:0.1784037558685446 243:0.056338028169014086 244:0.023474178403755867 245:0.07981220657276995 246:0.6666666666666666 247:0.03286384976525822 248:0.07511737089201878 249:0.06103286384976526 250:0.056338028169014086 251:0.215962441314554 252:0.023474178403755867 253:0.023474178403755867 254:0.056338028169014086 255:0.014084507042253521 256:0.12206572769953052 257:0.5309278350515464 258:0.1134020618556701 259:0.19072164948453607 260:0.04639175257731959 261:0.15463917525773196 262:0.05154639175257732 263:0.3247422680412371 264:0.04639175257731959 265:0.20618556701030927 266:0.634020618556701 267:0.12371134020618557 268:0.16494845360824742 269:0.030927835051546393 270:0.07731958762886598 271:0.09278350515463918 272:0.17525773195876287 273:0.5355191256830601 274:0.273224043715847 275:0.16393442622950818 276:0.09836065573770492 277:0.15300546448087432 278:0.546448087431694 279:0.03825136612021858 280:0.14754098360655737 281:0.14207650273224043 282:0.17486338797814208 283:0.3989071038251366 284:0.10382513661202186 285:0.060109289617486336 286:0.12021857923497267 287:0.0546448087431694 288:0.13114754098360656 289:0.6286919831223629 290:0.16033755274261605 291:0.02109704641350211 292:0.02531645569620253 293:0.1940928270042194 294:0.6877637130801688 295:0.05063291139240506 296:0.15611814345991562 297:0.05063291139240506 298:0.05063291139240506 299:0.1350210970464135 300:0.0379746835443038 301:0.02109704641350211 302:0.0970464135021097 303:0.012658227848101266 304:0.0970464135021097 305:1.0 306:0.01303538175046555 307:0.00558659217877095 308:0.0 309:0.0186219739292365 310:0.0037243947858473 311:0.00186219739292365 312:0.00186219739292365 313:0.01675977653631285 314:0.00186219739292365 315:0.0 316:0.0037243947858473 317:0.0037243947858473 318:0.0 319:0.0 320:0.0 
1.0 1:0.035868005738880916 2:0.05595408895265423 3:0.05308464849354376 4:0.00430416068866571 5:0.0 6:0.03299856527977044 7:0.024390243902439025 8:0.03730272596843615 9:0.019230769230769232 10:0.08882783882783883 11:0.08882783882783883 12:0.024725274725274724 13:0.05036630036630037 14:0.057692307692307696 15:0.09981684981684982 16:0.028388278388278388 17:0.06683168316831684 18:0.04146039603960396 19:0.01485148514851485 20:0.006806930693069307 21:0.0594059405940594 22:0.0 23:0.04641089108910891 24:0.040222772277227724 25:0.027205882352941177 26:0.0 27:0.0 28:0.0125 29:0.03529411764705882 30:0.0 31:0.01911764705882353 32:0.06838235294117648 33:0.017045454545454544 34:0.0 35:0.0 36:0.02462121212121212 37:0.013888888888888888 38:0.0 39:0.001893939393939394 40:0.039141414141414144 41:0.0011037527593818985 42:0.0 43:0.0 44:0.030353200883002206 45:0.0011037527593818985 46:0.0 47:0.0 48:5.518763796909492E-4 49:0.0 50:0.0 51:0.0 52:0.029644268774703556 53:0.0 54:0.0 55:0.0 56:0.0 57:0.0 58:0.0 59:0.0 60:0.020833333333333332 61:0.0 62:0.0 63:0.0 64:0.0 65:1.0 66:0.0 67:0.0 68:0.0 69:0.0 70:0.0 71:0.0 72:0.0 73:0.0 74:0.0 75:0.0 76:0.0 77:0.0 78:0.0 79:0.0 80:0.0 81:0.9447513812154696 82:0.049723756906077346 83:0.14917127071823205 84:0.016574585635359115 85:0.03867403314917127 86:0.022099447513812154 87:0.055248618784530384 88:0.0055248618784530384 89:0.12154696132596685 90:0.011049723756906077 91:0.2596685082872928 92:0.03867403314917127 93:0.016574585635359115 94:0.011049723756906077 95:0.04419889502762431 96:0.011049723756906077 97:0.16363636363636364 98:0.11818181818181818 99:0.21818181818181817 100:0.03636363636363636 101:0.15454545454545454 102:0.2636363636363636 103:0.5909090909090909 104:0.11818181818181818 105:0.10909090909090909 106:0.2 107:0.6090909090909091 108:0.07272727272727272 109:0.01818181818181818 110:0.09090909090909091 111:0.09090909090909091 112:0.1 113:0.6120689655172413 114:0.034482758620689655 115:0.28448275862068967 116:0.017241379310344827 117:0.10344827586206896 118:0.16379310344827586 119:0.4224137931034483 120:0.06896551724137931 121:0.12931034482758622 122:0.19827586206896552 123:0.5086206896551724 124:0.04310344827586207 125:0.017241379310344827 126:0.017241379310344827 127:0.11206896551724138 128:0.06896551724137931 129:0.9964285714285714 130:0.0 131:0.06785714285714285 132:0.0035714285714285713 133:0.010714285714285714 134:0.0035714285714285713 135:0.010714285714285714 136:0.0 137:0.014285714285714285 138:0.0 139:0.05 140:0.0 141:0.0 142:0.0 143:0.0 144:0.0035714285714285713 145:0.32653061224489793 146:0.14285714285714285 147:0.24489795918367346 148:0.09183673469387756 149:0.14285714285714285 150:0.07142857142857142 151:0.35714285714285715 152:0.11224489795918367 153:0.3163265306122449 154:0.32653061224489793 155:0.6122448979591837 156:0.15306122448979592 157:0.05102040816326531 158:0.07142857142857142 159:0.14285714285714285 160:0.15306122448979592 161:0.24509803921568626 162:0.058823529411764705 163:0.13725490196078433 164:0.0196078431372549 165:0.17647058823529413 166:0.3627450980392157 167:0.46078431372549017 168:0.12745098039215685 169:0.22549019607843138 170:0.3627450980392157 171:0.5392156862745098 172:0.13725490196078433 173:0.00980392156862745 174:0.06862745098039216 175:0.0784313725490196 176:0.17647058823529413 177:0.27350427350427353 178:0.27350427350427353 179:0.05982905982905983 180:0.008547008547008548 181:0.10256410256410256 182:0.7264957264957265 183:0.05982905982905983 184:0.1111111111111111 185:0.1111111111111111 186:0.4188034188034188 187:0.2564102564102564 188:0.05128205128205128 189:0.03418803418803419 190:0.11965811965811966 191:0.02564102564102564 192:0.1452991452991453 193:0.25 194:0.04878048780487805 195:0.34146341463414637 196:0.03048780487804878 197:0.018292682926829267 198:0.04878048780487805 199:0.0975609756097561 200:0.0 201:0.07317073170731707 202:0.018292682926829267 203:0.8902439024390244 204:0.042682926829268296 205:0.012195121951219513 206:0.006097560975609756 207:0.06097560975609756 208:0.042682926829268296 209:0.23893805309734514 210:0.05309734513274336 211:0.415929203539823 212:0.008849557522123894 213:0.11504424778761062 214:0.1592920353982301 215:0.21238938053097345 216:0.04424778761061947 217:0.13274336283185842 218:0.23008849557522124 219:0.7168141592920354 220:0.1504424778761062 221:0.0 222:0.017699115044247787 223:0.22123893805309736 224:0.1592920353982301 225:0.4 226:0.09 227:0.33 228:0.02 229:0.22 230:0.21 231:0.29 232:0.11 233:0.17 234:0.3 235:0.6 236:0.14 237:0.02 238:0.05 239:0.11 240:0.19 241:0.3163265306122449 242:0.20408163265306123 243:0.17346938775510204 244:0.05102040816326531 245:0.19387755102040816 246:0.45918367346938777 247:0.40816326530612246 248:0.15306122448979592 249:0.10204081632653061 250:0.21428571428571427 251:0.5306122448979592 252:0.10204081632653061 253:0.02040816326530612 254:0.08163265306122448 255:0.15306122448979592 256:0.15306122448979592 257:0.21232876712328766 258:0.07534246575342465 259:0.2876712328767123 260:0.03424657534246575 261:0.08904109589041095 262:0.0136986301369863 263:0.773972602739726 264:0.07534246575342465 265:0.1780821917808219 266:0.3013698630136986 267:0.2876712328767123 268:0.14383561643835616 269:0.0136986301369863 270:0.0547945205479452 271:0.15753424657534246 272:0.0410958904109589 273:0.21052631578947367 274:0.1118421052631579 275:0.4934210526315789 276:0.05263157894736842 277:0.10526315789473684 278:0.10526315789473684 279:0.3092105263157895 280:0.07236842105263158 281:0.09868421052631579 282:0.013157894736842105 283:0.7105263157894737 284:0.046052631578947366 285:0.013157894736842105 286:0.013157894736842105 287:0.24342105263157895 288:0.03289473684210526 289:0.3 290:0.11333333333333333 291:0.13333333333333333 292:0.07333333333333333 293:0.10666666666666667 294:0.5666666666666667 295:0.06 296:0.11333333333333333 297:0.16 298:0.05333333333333334 299:0.6933333333333334 300:0.1 301:0.006666666666666667 302:0.04666666666666667 303:0.04 304:0.1 305:0.6538461538461539 306:0.3076923076923077 307:0.16025641025641027 308:0.08974358974358974 309:0.15384615384615385 310:0.6089743589743589 311:0.10897435897435898 312:0.057692307692307696 313:0.08333333333333333 314:0.019230769230769232 315:0.16025641025641027 316:0.057692307692307696 317:0.02564102564102564 318:0.00641025641025641 319:0.04487179487179487 320:0.02564102564102564 
1.0 1:0.12769010043041606 2:0.12769010043041606 3:0.12769010043041606 4:0.12625538020086083 5:0.12769010043041606 6:0.12625538020086083 7:0.11621233859397417 8:0.1133428981348637 9:0.12454212454212454 10:0.1282051282051282 11:0.1282051282051282 12:0.12912087912087913 13:0.1282051282051282 14:0.12728937728937728 15:0.04395604395604396 16:0.0815018315018315 17:0.09653465346534654 18:0.0625 19:0.06930693069306931 20:0.12747524752475248 21:0.12685643564356436 22:0.1188118811881188 23:0.005569306930693069 24:0.04579207920792079 25:0.10808823529411765 26:0.0029411764705882353 27:0.014705882352941176 28:0.12720588235294117 29:0.12867647058823528 30:0.09117647058823529 31:0.0 32:0.008088235294117648 33:0.08901515151515152 34:0.0 35:0.0 36:0.028409090909090908 37:0.08838383838383838 38:0.006944444444444444 39:0.0 40:0.018308080808080808 41:0.06898454746136866 42:0.0 43:0.0 44:0.0 45:0.01545253863134658 46:0.0 47:0.0 48:0.024282560706401765 49:0.04841897233201581 50:0.0 51:0.0 52:0.0 53:0.0 54:0.0 55:0.0 56:0.021739130434782608 57:0.028079710144927536 58:0.0 59:0.0 60:0.0 61:0.0 62:0.0 63:0.0 64:0.017210144927536232 65:1.0 66:0.0 67:0.0 68:0.0 69:0.0 70:0.0 71:0.0 72:0.0 73:0.0 74:0.0 75:0.0 76:0.0 77:0.0 78:0.0 79:0.0 80:0.0 81:1.0 82:0.0026954177897574125 83:0.026954177897574125 84:0.0 85:0.0 86:0.0 87:0.008086253369272238 88:0.0 89:0.03504043126684636 90:0.005390835579514825 91:0.008086253369272238 92:0.0 93:0.0 94:0.0 95:0.01078167115902965 96:0.0026954177897574125 97:0.48905109489051096 98:0.10218978102189781 99:0.19708029197080293 100:0.0364963503649635 101:0.072992700729927 102:0.12408759124087591 103:0.2116788321167883 104:0.06569343065693431 105:0.24817518248175183 106:0.10218978102189781 107:0.6934306569343066 108:0.16058394160583941 109:0.072992700729927 110:0.08029197080291971 111:0.145985401459854 112:0.17518248175182483 113:0.44966442953020136 114:0.08053691275167785 115:0.4228187919463087 116:0.087248322147651 117:0.3087248322147651 118:0.10738255033557047 119:0.5973154362416108 120:0.087248322147651 121:0.09395973154362416 122:0.053691275167785234 123:0.18120805369127516 124:0.053691275167785234 125:0.14093959731543623 126:0.09395973154362416 127:0.22818791946308725 128:0.09395973154362416 129:1.0 130:0.0 131:0.01015228426395939 132:0.0 133:0.005076142131979695 134:0.0 135:0.005076142131979695 136:0.0 137:0.012690355329949238 138:0.0025380710659898475 139:0.0 140:0.0 141:0.0 142:0.0 143:0.0 144:0.0 145:0.8333333333333334 146:0.08064516129032258 147:0.13978494623655913 148:0.016129032258064516 149:0.04838709677419355 150:0.15053763440860216 151:0.06451612903225806 152:0.021505376344086023 153:0.13978494623655913 154:0.03763440860215054 155:0.4731182795698925 156:0.04838709677419355 157:0.016129032258064516 158:0.026881720430107527 159:0.04838709677419355 160:0.04838709677419355 161:0.33116883116883117 162:0.12987012987012986 163:0.23376623376623376 164:0.0 165:0.06493506493506493 166:0.16233766233766234 167:0.045454545454545456 168:0.025974025974025976 169:0.16233766233766234 170:0.22077922077922077 171:0.8116883116883117 172:0.11688311688311688 173:0.032467532467532464 174:0.03896103896103896 175:0.14935064935064934 176:0.12337662337662338 177:0.5369127516778524 178:0.28187919463087246 179:0.26174496644295303 180:0.06040268456375839 181:0.2684563758389262 182:0.5906040268456376 183:0.2080536912751678 184:0.11409395973154363 185:0.10067114093959731 186:0.040268456375838924 187:0.14093959731543623 188:0.026845637583892617 189:0.06711409395973154 190:0.11409395973154363 191:0.12080536912751678 192:0.1476510067114094 193:0.7570621468926554 194:0.04519774011299435 195:0.288135593220339 196:0.01694915254237288 197:0.07909604519774012 198:0.011299435028248588 199:0.14124293785310735 200:0.02824858757062147 201:0.10734463276836158 202:0.01694915254237288 203:0.536723163841808 204:0.05649717514124294 205:0.011299435028248588 206:0.03389830508474576 207:0.10734463276836158 208:0.06779661016949153 209:0.15172413793103448 210:0.0896551724137931 211:0.1310344827586207 212:0.0 213:0.12413793103448276 214:0.4068965517241379 215:0.25517241379310346 216:0.10344827586206896 217:0.15172413793103448 218:0.2482758620689655 219:0.7655172413793103 220:0.12413793103448276 221:0.006896551724137931 222:0.08275862068965517 223:0.08275862068965517 224:0.0896551724137931 225:0.539568345323741 226:0.14388489208633093 227:0.2014388489208633 228:0.03597122302158273 229:0.12949640287769784 230:0.31654676258992803 231:0.14388489208633093 232:0.10071942446043165 233:0.16546762589928057 234:0.15827338129496402 235:0.6546762589928058 236:0.12949640287769784 237:0.02158273381294964 238:0.04316546762589928 239:0.06474820143884892 240:0.08633093525179857 241:0.4473684210526316 242:0.2894736842105263 243:0.16447368421052633 244:0.09210526315789473 245:0.2236842105263158 246:0.6118421052631579 247:0.2236842105263158 248:0.10526315789473684 249:0.07236842105263158 250:0.1513157894736842 251:0.3881578947368421 252:0.046052631578947366 253:0.006578947368421052 254:0.046052631578947366 255:0.05921052631578947 256:0.09210526315789473 257:0.3835616438356164 258:0.08904109589041095 259:0.08904109589041095 260:0.10273972602739725 261:0.08904109589041095 262:0.0410958904109589 263:0.1095890410958904 264:0.11643835616438356 265:0.3082191780821918 266:0.726027397260274 267:0.21232876712328766 268:0.21232876712328766 269:0.0958904109589041 270:0.06164383561643835 271:0.07534246575342465 272:0.2465753424657534 273:0.37209302325581395 274:0.23255813953488372 275:0.3333333333333333 276:0.13178294573643412 277:0.17829457364341086 278:0.24031007751937986 279:0.32558139534883723 280:0.07751937984496124 281:0.17054263565891473 282:0.12403100775193798 283:0.6046511627906976 284:0.12403100775193798 285:0.06976744186046512 286:0.06976744186046512 287:0.17829457364341086 288:0.11627906976744186 289:0.31794871794871793 290:0.18461538461538463 291:0.08205128205128205 292:0.010256410256410256 293:0.13846153846153847 294:0.8512820512820513 295:0.041025641025641026 296:0.041025641025641026 297:0.11282051282051282 298:0.03076923076923077 299:0.3230769230769231 300:0.046153846153846156 301:0.0 302:0.005128205128205128 303:0.010256410256410256 304:0.020512820512820513 305:0.4371859296482412 306:0.24120603015075376 307:0.09045226130653267 308:0.04522613065326633 309:0.15577889447236182 310:0.7889447236180904 311:0.05527638190954774 312:0.07035175879396985 313:0.10552763819095477 314:0.06030150753768844 315:0.2613065326633166 316:0.04522613065326633 317:0.005025125628140704 318:0.03015075376884422 319:0.01507537688442211 320:0.035175879396984924 
1.0 1:0.01291248206599713 2:0.06743185078909612 3:0.09182209469153516 4:0.08895265423242468 5:0.1291248206599713 6:0.07173601147776183 7:0.02295552367288379 8:0.01721664275466284 9:0.009157509157509158 10:0.09615384615384616 11:0.10989010989010989 12:0.12179487179487179 13:0.1282051282051282 14:0.09981684981684982 15:0.0 16:0.031135531135531136 17:0.0426980198019802 18:0.04950495049504951 19:0.08044554455445545 20:0.06745049504950495 21:0.12747524752475248 22:0.11695544554455446 23:0.0024752475247524753 24:0.024752475247524754 25:0.10588235294117647 26:0.0 27:0.03676470588235294 28:0.047058823529411764 29:0.12941176470588237 30:0.06911764705882353 31:0.0 32:0.008823529411764706 33:0.07954545454545454 34:0.0 35:0.008207070707070708 36:0.017045454545454544 37:0.08585858585858586 38:6.313131313131314E-4 39:0.0 40:0.028409090909090908 41:0.057947019867549666 42:0.0 43:0.0 44:0.0 45:0.010485651214128035 46:0.0 47:0.0 48:0.033112582781456956 49:0.040513833992094864 50:0.0 51:0.0 52:0.0 53:0.0 54:0.0 55:0.0 56:0.031126482213438736 57:0.019927536231884056 58:0.0 59:0.0 60:0.0 61:0.0 62:0.0 63:0.0 64:0.029891304347826088 65:1.0 66:0.0 67:0.0 68:0.0 69:0.0 70:0.0 71:0.0 72:0.0 73:0.0 74:0.0 75:0.0 76:0.0 77:0.0 78:0.0 79:0.0 80:0.0 81:1.0 82:0.0 83:0.01808785529715762 84:0.0 85:0.0 86:0.0 87:0.0 88:0.0 89:0.028423772609819122 90:0.0 91:0.007751937984496124 92:0.0 93:0.0 94:0.0 95:0.0 96:0.0 97:0.45652173913043476 98:0.12318840579710146 99:0.2391304347826087 100:0.08695652173913043 101:0.13043478260869565 102:0.12318840579710146 103:0.2753623188405797 104:0.057971014492753624 105:0.13768115942028986 106:0.050724637681159424 107:0.7101449275362319 108:0.06521739130434782 109:0.06521739130434782 110:0.07246376811594203 111:0.2318840579710145 112:0.13043478260869565 113:0.5103448275862069 114:0.10344827586206896 115:0.33793103448275863 116:0.0896551724137931 117:0.25517241379310346 118:0.07586206896551724 119:0.5448275862068965 120:0.09655172413793103 121:0.10344827586206896 122:0.06206896551724138 123:0.31724137931034485 124:0.06206896551724138 125:0.20689655172413793 126:0.041379310344827586 127:0.2413793103448276 128:0.11724137931034483 129:1.0 130:0.0 131:0.0 132:0.0 133:0.0 134:0.0 135:0.0 136:0.0 137:0.0 138:0.0 139:0.0 140:0.0 141:0.0 142:0.0 143:0.0 144:0.0 145:0.9178082191780822 146:0.0273972602739726 147:0.0776255707762557 148:0.0045662100456621 149:0.0684931506849315 150:0.1141552511415525 151:0.0684931506849315 152:0.0045662100456621 153:0.0958904109589041 154:0.0182648401826484 155:0.3470319634703196 156:0.045662100456621 157:0.0045662100456621 158:0.0045662100456621 159:0.0547945205479452 160:0.0091324200913242 161:0.49635036496350365 162:0.10218978102189781 163:0.19708029197080293 164:0.014598540145985401 165:0.11678832116788321 166:0.11678832116788321 167:0.08029197080291971 168:0.058394160583941604 169:0.23357664233576642 170:0.3722627737226277 171:0.6423357664233577 172:0.145985401459854 173:0.043795620437956206 174:0.058394160583941604 175:0.11678832116788321 176:0.18248175182481752 177:0.6217948717948718 178:0.1346153846153846 179:0.1794871794871795 180:0.04487179487179487 181:0.22435897435897437 182:0.6025641025641025 183:0.23717948717948717 184:0.10897435897435898 185:0.11538461538461539 186:0.057692307692307696 187:0.17307692307692307 188:0.05128205128205128 189:0.057692307692307696 190:0.10256410256410256 191:0.08974358974358974 192:0.14102564102564102 193:0.8374384236453202 194:0.024630541871921183 195:0.27586206896551724 196:0.024630541871921183 197:0.024630541871921183 198:0.009852216748768473 199:0.14285714285714285 200:0.0049261083743842365 201:0.06403940886699508 202:0.019704433497536946 203:0.43842364532019706 204:0.024630541871921183 205:0.019704433497536946 206:0.009852216748768473 207:0.059113300492610835 208:0.029556650246305417 209:0.13513513513513514 210:0.18243243243243243 211:0.0945945945945946 212:0.013513513513513514 213:0.12837837837837837 214:0.527027027027027 215:0.16216216216216217 216:0.08108108108108109 217:0.13513513513513514 218:0.18243243243243243 219:0.7297297297297297 220:0.10810810810810811 221:0.013513513513513514 222:0.12162162162162163 223:0.033783783783783786 224:0.10810810810810811 225:0.25595238095238093 226:0.07738095238095238 227:0.16666666666666666 228:0.047619047619047616 229:0.041666666666666664 230:0.24404761904761904 231:0.02976190476190476 232:0.047619047619047616 233:0.2916666666666667 234:0.13690476190476192 235:0.8452380952380952 236:0.125 237:0.011904761904761904 238:0.017857142857142856 239:0.017857142857142856 240:0.07142857142857142 241:0.42857142857142855 242:0.16233766233766234 243:0.14935064935064934 244:0.03896103896103896 245:0.3116883116883117 246:0.6623376623376623 247:0.24675324675324675 248:0.15584415584415584 249:0.1038961038961039 250:0.11688311688311688 251:0.3246753246753247 252:0.1038961038961039 253:0.0 254:0.05844155844155844 255:0.06493506493506493 256:0.05194805194805195 257:0.4391891891891892 258:0.12837837837837837 259:0.20270270270270271 260:0.12837837837837837 261:0.12837837837837837 262:0.0472972972972973 263:0.17567567567567569 264:0.12162162162162163 265:0.22297297297297297 266:0.6486486486486487 267:0.24324324324324326 268:0.0945945945945946 269:0.06756756756756757 270:0.10135135135135136 271:0.20945945945945946 272:0.28378378378378377 273:0.22727272727272727 274:0.125 275:0.23295454545454544 276:0.0625 277:0.07954545454545454 278:0.14772727272727273 279:0.26704545454545453 280:0.07954545454545454 281:0.1590909090909091 282:0.08522727272727272 283:0.8352272727272727 284:0.06818181818181818 285:0.0625 286:0.03977272727272727 287:0.13068181818181818 288:0.125 289:0.29797979797979796 290:0.16666666666666666 291:0.0707070707070707 292:0.025252525252525252 293:0.10606060606060606 294:0.6767676767676768 295:0.015151515151515152 296:0.0707070707070707 297:0.12121212121212122 298:0.0707070707070707 299:0.6161616161616161 300:0.09090909090909091 301:0.020202020202020204 302:0.030303030303030304 303:0.015151515151515152 304:0.030303030303030304 305:0.7030567685589519 306:0.17903930131004367 307:0.026200873362445413 308:0.034934497816593885 309:0.13973799126637554 310:0.5982532751091703 311:0.026200873362445413 312:0.08733624454148471 313:0.09606986899563319 314:0.048034934497816595 315:0.27074235807860264 316:0.05240174672489083 317:0.008733624454148471 318:0.026200873362445413 319:0.013100436681222707 320:0.048034934497816595 
